svm_type c_svc
kernel_type rbf
gamma 0.03125
nr_class 2
total_sv 64
rho 14.3062
label 0 1
nr_sv 39 25
SV
0.577855201250471 1:-0.333333 3:-0.2 4:-1 5:1 6:-1 7:-1 8:-1 9:-1 10:-0.333333 
21.39275298691477 1:-0.333333 3:1 4:1 5:-1 6:1 7:-1 8:-1 9:-1 10:-1 
32.18995649590445 1:-0.2 3:1 4:1 5:-1 6:-1 7:-1 8:-1 9:-1 10:-1 
94.11864978623611 1:-1 3:-1 4:-1 5:-1 6:-1 7:-1 8:-1 9:-0.714286 10:-0.333333 
4.788270751095601 1:1 3:1 4:-1 5:-1 6:-1 7:-1 8:-1 9:0.142857 10:-0.666667 
119.8069317207323 1:1 3:1 4:-1 5:-1 6:-1 7:-1 8:-1 9:-1 10:-1 
10.78548938182533 1:1 3:-1 4:-1 5:-0.878788 6:-1 7:-1 8:-0.238095 9:1 10:-1 
44.67285180564144 1:-1 3:-1 4:-1 5:-1 6:1 7:1 8:-0.777778 9:-0.714286 10:-1 
35.5588847113009 1:0.333333 3:-1 4:-1 5:-1 6:-1 7:-1 8:-1 9:-1 10:-1 
47.6324459161969 1:-0.333333 3:-1 4:1 5:-1 6:1 7:-1 8:-1 9:-0.714286 10:-0.333333 
0.7715003009705353 1:1 3:-1 4:-1 5:1 6:-1 7:-1 8:-1 9:-1 10:-1 
18.3311849256172 1:-0.2 3:1 4:1 5:-1 6:1 7:-1 8:-0.6 9:-0.428571 10:-1 
128 1:-1 3:-1 4:1 5:-1 6:-1 7:1 8:-0.777778 9:-0.428571 10:-1 
13.50577700361136 1:1 3:-1 4:-1 5:1 6:-1 7:-1 8:-1 9:-1 10:-1 
19.09110384284424 1:-0.333333 3:-1 4:1 5:-1 6:1 7:1 8:-0.454545 9:-0.714286 10:-1 
16.52181022265608 1:1 3:-1 4:-1 5:-1 6:1 7:-1 8:-0.454545 9:1 10:-1 
14.51316504292505 1:-1 3:-1 4:1 5:1 6:1 7:-1 8:-1 9:-0.428571 10:-1 
77.75829691418434 1:1 3:-1 4:-1 5:-0.0909091 6:1 7:1 8:-0.6 9:0.142857 10:-0.333333 
37.64280735707722 1:-0.333333 3:-1 4:-1 5:1 6:1 7:1 8:-0.454545 9:-0.714286 10:-1 
11.11214978570283 1:-0.2 3:1 4:-1 5:1 6:-1 7:-1 8:-1 9:-1 10:-1 
31.88210811163936 1:0.333333 3:1 4:1 5:-0.176471 6:1 7:-1 8:-1 9:-0.428571 10:-0.666667 
113.0067933715219 1:1 3:-1 4:-1 5:-1 6:1 7:1 8:-0.6 9:-1 10:-1 
20.79922403793332 1:1 3:-1 4:-1 5:1 6:1 7:-1 8:-0.0909091 9:-1 10:-0.666667 
8.950123843487477 1:1 3:-1 4:-1 5:-1 6:1 7:-1 8:-0.272727 9:-1 10:-1 
3.122759881418093 3:1 4:-1 5:-1 6:1 7:-1 8:-0.272727 9:-1 10:-0.666667 
11.49803884032787 1:-0.2 3:1 4:1 5:-0.142857 6:1 7:1 8:-1 9:-0.714286 10:-0.666667 
63.3825422594526 1:1 3:1 4:1 5:-0.111111 6:1 7:-1 8:-1 9:0.142857 10:-1 
24.16440783030081 1:1 3:1 4:-0.6 5:1 6:1 7:-1 8:-0.6 9:-1 10:-1 
115.7433257613401 1:1 3:-1 4:1 5:-0.259259 6:-1 7:1 8:-0.6 9:1 
4.099652859874561 1:-0.333333 3:1 4:-1 5:1 6:1 7:-1 8:-0.6 9:-0.428571 10:-1 
4.479534877494207 1:-0.333333 3:1 4:-1 5:1 6:1 7:-1 8:-1 9:-0.714286 10:-1 
44.03544803642084 1:1 3:-1 4:-1 5:-0.333333 6:1 7:1 8:-0.6 9:1 10:-1 
78.02654320612085 1:1 3:1 4:-1 5:1 6:1 7:-1 8:-0.454545 9:-1 10:-1 
12.91846597531527 1:1 3:1 4:-1 5:-0.230769 6:1 7:-1 8:-0.6 9:1 10:-1 
60.51961304574253 1:-0.333333 3:1 4:-1 5:1 6:1 7:-1 8:-0.6 9:-0.428571 10:-1 
15.08287033978849 1:1 3:1 4:-1 5:1 6:1 7:1 8:-1 9:0.142857 10:-1 
128 1:1 3:-1 4:-1 5:-0.407407 6:1 7:1 8:-0.454545 9:1 10:-1 
31.91235060055121 1:1 3:-1 4:-0.555556 5:1 6:1 7:-1 8:-0.6 9:1 10:-1 
71.91213641445516 1:-0.333333 3:1 4:-1 5:1 6:1 7:1 8:-1 9:-0.428571 10:-1 
-21.07066878482629 1:1 3:-0.555556 4:-0.5 5:1 6:1 7:1 8:-1 9:0.428571 
-42.50418933685233 1:-1 3:-1 4:1 5:-1 6:-1 7:-1 8:-0.333333 9:1 10:-0.666667 
-20.77420235969281 3:1 4:1 5:1 6:-1 7:-1 8:0.142857 9:0.142857 10:-1 
-3.16782539206969 3:-1 4:-0.2 5:1 6:1 7:-1 8:1 9:0.142857 10:-0.333333 
-15.25109291766337 1:-1 3:-1 4:-1 5:-1 6:1 7:-1 8:-1 9:-0.714286 10:0.333333 
-22.22666838471188 1:1 3:-0.5 4:-0.384615 5:0.217391 6:-1 7:1 8:-1 9:1 10:1 
-6.621377318289611 1:1 3:0.454546 4:1 5:-1 6:1 7:-1 8:-1 9:1 10:-0.666667 
-50.34055658131435 1:-1 3:1 4:-1 5:1 6:1 7:1 8:-0.333333 9:-1 10:-0.666667 
-59.99708373231663 1:1 3:-1 4:-1 5:-1 6:1 7:-1 8:-1 9:-1 
-128 1:1 3:1 4:-1 5:-1 6:-1 7:-1 8:-1 9:-1 10:-1 
-5.335927589475867 3:1 4:0.142857 5:1 6:-1 7:0.333333 8:-1 9:0.538462 
-22.52520794022315 1:-1 3:1 4:-0.5 5:1 6:1 7:-1 8:0.142857 9:-1 10:-0.714286 
-117.6682546661404 1:1 3:1 4:0.333333 5:1 6:1 7:-1 8:-1 9:0.333333 10:-1 
-128 1:1 3:-1 4:-1 5:-1 6:1 7:1 8:0.0526316 9:-1 10:-1 
-128 1:-1 3:-1 4:1 5:-1 6:-1 7:1 8:-1 9:-1 10:-1 
-24.89348109192236 1:-1 3:-1 4:-1 5:-1 6:1 7:1 8:-0.8 9:1 10:-1 
-15.14168812081931 1:-1 3:0.733333 4:-1 5:-1 6:1 7:1 8:-1 9:1 10:-1 
-40.10738859963094 1:1 3:-1 4:-1 5:1 6:1 7:1 8:0.142857 9:1 10:-1 
-128 3:-1 4:-1 5:-1 6:-1 7:-1 8:-1 9:-1 10:-1 
-128 1:1 3:-1 4:1 5:-1 7:1 8:-1 9:1 10:-0.333333 
-128 3:-1 4:-1 5:1 6:1 7:1 8:-1 9:-0.142857 10:-1 
-128 1:1 3:1 4:-1 5:1 6:1 7:-1 8:-1 9:-0.714286 10:-1 
-15.36770727675661 1:1 3:-1 4:-1 5:1 6:-1 7:-1 8:0.473684 9:-0.714286 
-92.50371147523009 1:-1 3:1 4:1 5:-1 6:1 7:-1 8:-1 9:-1 10:-0.666667 
-120.810791877936 1:1 3:-1 4:-1 5:-1 6:1 7:1 8:-0.047619 9:1 10:-1 
