svm_type c_svc
kernel_type rbf
gamma 0.125
nr_class 2
total_sv 349
rho 1.14219
label 1 0
nr_sv 175 174
SV
0.3645085762391539 1:0.5 2:0.5 3:1 4:0.5 5:0.666667 6:0.5 7:0.25 8:0.166667 9:0.5 10:0.5 11:0.5 12:0.5 13:0.5 14:0.5 15:0.5 16:1 17:0.5 18:0.25 19:0.333333 20:0.25 21:0.25 22:0.25 23:0.166667 24:0.333333 25:0.5 26:0.5 27:0.5 28:0.25 29:0.25 30:0.25 31:0.5 32:0.5 33:0.25 34:0.25 35:0.25 36:0.5 37:0.5 38:0.25 39:0.333333 40:0.25 41:0.25 42:0.25 43:0.25 44:0.25 45:0.5 46:0.166667 47:0.25 48:0.25 49:0.2 
0.353216246277252 1:0.166667 2:0.25 19:0.166667 22:0.25 38:0.25 44:0.5 50:1 51:0.5 52:1 53:0.5 54:0.5 55:0.6 56:0.25 57:0.5 58:0.333333 59:0.5 60:0.5 61:0.5 62:0.5 63:0.25 64:0.5 65:1 66:0.5 67:0.5 68:0.5 69:0.333333 70:0.25 71:0.5 72:0.666667 73:1 74:0.5 75:0.333333 76:0.25 77:0.25 78:0.5 79:0.25 80:0.25 81:0.5 82:0.333333 83:0.25 84:0.5 85:0.25 86:0.25 87:0.25 88:0.5 89:0.5 90:0.25 91:0.333333 92:0.25 93:0.333333 94:0.25 
0.591270295016385 7:0.25 20:0.5 22:0.5 25:0.5 26:1 27:0.25 29:0.25 33:0.25 36:0.5 39:0.666667 43:0.25 44:0.25 50:0.666667 53:0.25 55:0.6 69:0.666667 70:0.75 73:0.5 76:0.25 77:0.5 78:0.5 83:0.25 101:0.25 102:0.5 106:0.5 112:1 113:0.5 114:1 115:0.5 116:0.333333 117:0.5 118:0.333333 119:0.25 120:0.5 121:0.25 122:0.5 123:0.5 124:0.25 125:0.25 126:0.25 127:0.25 128:0.5 129:0.5 130:0.5 131:0.5 132:0.333333 133:0.5 134:0.5 135:0.333333 136:0.5 137:0.5 138:0.5 139:0.5 
1.505813918634443 1:0.333333 2:0.5 10:0.5 14:1 19:0.166667 23:0.166667 39:0.333333 42:0.25 46:0.166667 47:0.25 48:0.25 49:0.2 68:0.5 71:0.5 72:0.666667 77:0.25 80:0.25 84:0.5 91:0.333333 95:0.333333 97:0.5 110:0.5 116:1 118:0.333333 140:0.5 141:1 142:0.5 143:0.5 144:0.5 145:0.333333 146:0.25 147:1 148:0.666667 149:0.5 150:0.5 151:0.5 152:0.5 153:1 154:0.75 155:1 156:0.5 157:1 158:0.25 159:0.5 160:0.5 161:0.5 162:0.5 163:0.5 164:0.5 165:0.5 166:0.25 167:0.5 168:0.25 
0.3692759650748138 3:0.5 39:0.666667 40:0.25 44:0.5 53:0.5 54:0.5 55:0.2 58:0.333333 70:0.5 76:0.25 80:0.25 82:0.333333 86:0.5 93:0.333333 94:0.5 97:0.5 98:0.25 106:0.5 124:0.25 145:0.666667 146:0.5 148:0.333333 158:0.25 159:0.5 163:1 166:0.25 169:0.666667 170:1 171:0.25 172:0.25 173:0.5 174:0.5 175:0.333333 176:0.5 177:0.333333 178:0.5 179:0.5 180:0.5 181:0.5 182:1 183:0.25 184:0.5 185:0.25 186:0.5 187:0.5 188:0.25 189:0.5 190:0.25 191:0.25 
0.4637731802209202 1:0.166667 5:0.333333 19:0.166667 21:0.25 25:0.5 26:0.5 28:0.5 40:0.5 46:0.166667 47:0.25 48:0.25 49:0.2 50:0.666667 51:0.25 55:0.2 62:0.5 73:0.5 76:0.25 80:0.25 83:0.25 92:0.5 103:0.5 113:0.25 118:0.333333 123:0.5 129:0.5 140:0.25 145:0.333333 158:0.25 164:0.5 165:0.5 168:0.25 184:0.5 202:0.5 209:0.5 214:0.5 221:0.5 227:1 228:1 229:0.25 230:0.333333 231:0.5 232:0.666667 233:0.5 234:1 235:1 236:0.5 237:0.5 238:0.5 
0.3885174609259456 1:0.166667 5:0.333333 7:0.25 19:0.333333 20:0.25 24:0.333333 37:0.5 38:0.25 44:0.25 46:0.333333 47:0.5 48:0.5 49:0.4 58:0.333333 60:0.5 63:0.25 70:0.25 71:0.5 72:0.666667 74:0.5 92:0.25 101:0.75 103:0.5 116:0.333333 145:0.666667 146:0.25 159:0.5 178:0.5 192:0.333333 212:0.5 271:1 272:0.5 282:0.333333 284:1 285:0.333333 286:0.5 287:1 288:1 289:0.5 290:0.25 
0.7690510955923208 3:0.25 7:0.75 18:0.25 19:0.333333 20:0.5 21:0.25 22:0.25 23:0.333333 24:0.333333 27:0.25 31:0.25 38:0.5 46:0.166667 47:0.25 48:0.25 49:0.2 53:0.25 76:0.25 79:0.25 80:0.25 94:0.5 121:0.25 127:0.25 135:0.333333 145:0.666667 146:0.5 148:1 158:0.25 160:0.25 166:0.5 195:0.25 196:1 207:0.5 214:0.25 237:1 243:0.5 244:0.5 263:0.25 267:0.5 274:0.5 275:0.5 276:0.5 280:0.5 283:0.5 291:0.5 292:0.5 293:0.25 294:0.5 295:0.166667 296:0.5 297:0.5 298:1 299:0.5 300:0.5 301:0.333333 302:0.5 303:0.25 
0.5611794014544356 8:0.166667 14:0.5 19:0.166667 23:0.333333 27:0.25 46:0.5 47:0.25 48:0.25 49:0.2 55:0.2 56:0.25 63:0.25 71:1 72:0.666667 77:0.5 80:0.25 86:0.5 92:0.25 93:0.333333 116:0.333333 124:0.25 125:0.25 126:0.25 132:0.666667 146:0.5 147:0.5 160:0.5 168:0.5 171:0.25 172:0.25 186:0.5 188:0.5 195:0.25 198:0.5 203:0.5 295:0.166667 303:0.25 304:1 305:1 306:0.5 307:0.5 308:0.5 309:0.5 
0.1293174596810625 5:0.333333 7:0.5 8:0.333333 9:0.5 23:0.166667 31:0.5 32:0.5 40:0.25 41:0.25 77:0.5 84:0.5 95:0.333333 106:0.5 107:0.5 109:0.5 115:0.5 126:0.25 127:0.25 132:0.666667 145:0.333333 154:0.25 168:0.25 184:0.5 193:0.5 204:0.5 220:1 221:0.5 222:0.5 224:0.5 230:0.666667 240:0.25 242:1 252:0.5 255:0.5 310:1 311:1 312:0.5 313:0.5 
0.8012282008756669 19:0.5 23:0.166667 27:0.25 31:0.25 44:0.5 46:0.333333 47:0.5 48:0.75 49:0.4 54:0.5 71:0.5 72:0.666667 83:0.5 86:0.25 87:0.25 88:0.5 95:0.333333 101:0.25 102:0.5 107:0.5 113:0.5 116:0.333333 121:0.25 127:0.5 146:0.5 154:0.5 212:0.25 213:1 214:0.5 215:0.5 216:1 217:1 218:1 219:1 267:0.5 274:0.25 281:0.666667 283:0.5 323:0.5 324:0.5 325:0.5 
0.9495509353090771 8:0.166667 14:0.5 19:0.166667 23:0.5 46:0.5 47:0.25 48:0.25 49:0.2 56:0.25 63:0.25 71:1 72:0.666667 77:0.5 80:0.25 86:0.5 92:0.25 117:0.5 125:0.25 130:0.5 131:0.5 132:0.666667 146:0.5 160:0.5 168:0.5 172:0.25 173:0.5 198:0.5 203:0.5 243:0.5 255:0.5 268:0.5 277:0.5 295:0.166667 304:1 305:1 306:0.75 307:0.5 308:0.5 313:0.5 326:1 327:0.5 328:1 329:0.5 330:0.5 
0.4752693939344438 11:0.5 23:0.166667 52:0.5 66:0.5 71:0.5 72:0.666667 86:0.25 87:0.25 91:0.666667 92:0.25 104:0.5 106:0.5 109:0.5 122:0.25 127:0.5 137:0.5 140:0.25 171:0.25 172:0.25 184:0.5 190:0.5 192:0.666667 195:0.75 208:0.5 210:0.5 224:0.5 229:0.5 231:0.5 240:0.25 263:0.25 264:1 273:1 297:0.5 301:0.333333 312:1 313:0.5 320:1 321:1 331:0.5 332:0.5 
0.27911476972168 1:0.333333 2:0.25 14:0.5 19:0.166667 23:0.166667 25:0.5 26:0.5 35:0.25 38:0.5 40:0.25 43:0.25 46:0.166667 47:0.25 48:0.25 49:0.2 50:0.333333 54:0.25 78:0.5 91:0.666667 95:0.333333 99:0.5 100:1 101:0.25 102:0.5 103:0.5 109:0.5 126:0.25 132:0.333333 141:0.5 147:0.5 158:0.25 178:0.5 184:0.5 193:0.25 199:0.5 219:0.5 232:0.333333 273:0.5 275:0.5 276:0.5 294:0.5 308:0.5 312:0.5 313:0.5 316:0.5 325:0.5 330:0.5 333:0.5 334:0.5 335:0.5 336:0.5 337:0.5 338:0.5 
0.6075599270329904 2:0.25 5:0.666667 7:0.5 19:0.166667 20:0.25 22:0.25 27:0.25 28:0.25 29:0.25 40:0.5 41:0.5 46:0.166667 47:0.25 48:0.25 49:0.2 53:0.75 55:0.4 58:0.333333 69:0.333333 70:0.75 71:0.5 72:0.666667 80:0.5 86:0.25 111:0.333333 113:0.25 116:0.333333 134:0.5 152:0.5 171:0.25 190:0.25 195:0.5 212:0.25 214:0.5 229:1 243:0.5 257:1 286:0.5 308:0.5 317:1 329:0.5 339:1 340:0.5 
1.085205223502375 10:1 12:0.5 14:1 19:0.333333 20:0.5 25:0.5 26:0.5 42:0.5 44:0.5 46:0.333333 47:0.5 48:0.5 49:0.4 63:0.25 83:0.5 86:0.25 90:0.5 94:0.25 97:1 98:0.5 101:0.25 116:0.333333 122:0.25 124:0.25 125:0.25 126:0.5 132:0.333333 137:0.5 162:1 164:1 168:0.25 183:0.25 188:0.25 190:0.5 195:0.25 203:0.25 206:0.333333 207:1 231:0.5 232:0.333333 245:0.333333 250:0.25 261:1 269:0.5 329:0.5 342:0.5 343:0.5 344:0.5 345:0.5 
0.2366334445379319 2:0.25 12:0.5 19:0.166667 20:0.25 43:0.25 46:0.166667 47:0.25 48:0.25 49:0.2 53:0.25 54:0.25 56:0.25 57:0.5 58:0.666667 59:0.5 60:0.5 63:0.25 81:0.5 91:0.333333 95:0.666667 101:0.25 108:0.333333 111:0.333333 113:0.25 116:0.333333 121:0.25 154:0.5 160:0.25 168:0.25 171:0.25 183:0.25 193:1 195:0.25 201:0.25 205:0.333333 206:0.333333 232:0.333333 236:0.5 242:1 251:0.5 252:0.5 286:0.5 306:0.5 309:0.5 317:1 329:0.5 334:0.5 344:0.5 345:0.5 348:0.5 349:0.5 350:0.5 351:0.25 
0.3089953671945825 4:0.5 5:0.333333 7:0.25 22:0.25 23:0.166667 27:0.25 40:0.5 55:0.2 66:0.5 69:0.333333 70:0.25 71:0.5 72:0.666667 76:0.25 77:0.25 80:0.25 83:0.25 86:0.25 87:0.5 102:0.5 104:0.5 108:0.333333 109:0.5 127:0.5 146:0.25 158:0.25 162:0.5 174:0.5 178:0.5 179:0.5 184:0.5 192:0.666667 216:0.5 223:0.5 261:0.5 268:0.5 273:1 301:0.333333 303:0.25 309:0.5 312:0.5 313:0.5 320:1 321:1 352:0.5 357:1 358:0.5 359:0.5 360:0.5 361:0.5 362:0.5 363:0.5 
0.4421888255733358 7:0.25 15:1 19:0.166667 25:0.5 26:0.5 30:0.5 32:0.5 37:0.5 38:0.25 46:0.166667 47:0.25 48:0.25 49:0.2 63:0.25 79:0.25 82:0.333333 83:0.25 84:0.5 85:0.25 90:0.25 107:0.5 111:0.333333 118:0.333333 136:0.5 145:0.666667 146:0.5 148:0.333333 154:0.25 165:0.5 166:0.5 167:0.5 171:0.25 191:0.25 195:0.25 196:0.333333 202:0.5 228:0.5 237:0.5 273:0.5 288:1 291:1 316:0.5 356:0.5 369:1 370:0.5 
0.06019997536908973 18:0.25 19:0.333333 20:0.25 21:0.25 22:0.25 23:0.333333 24:0.666667 30:0.25 42:0.25 44:0.25 47:0.25 48:0.25 55:0.4 56:0.25 70:0.25 82:0.333333 83:0.25 84:0.5 85:0.25 101:0.5 102:1 116:0.333333 138:0.5 158:0.5 193:0.5 195:0.25 202:0.5 212:0.5 214:0.25 228:0.5 242:1 247:0.5 273:0.5 293:0.25 337:0.5 341:0.5 374:0.5 375:0.5 376:1 377:1 378:0.5 
0.4488600730169859 9:1 19:0.333333 22:0.25 23:0.333333 28:0.25 29:0.25 30:0.25 48:0.5 55:0.2 69:0.333333 70:0.25 71:0.5 72:0.666667 84:1 86:0.25 87:0.25 88:0.5 91:0.333333 94:0.25 120:0.5 121:0.25 125:0.25 128:0.5 135:0.333333 172:0.25 176:0.25 185:0.25 186:0.5 191:0.25 208:0.5 215:1 220:1 221:1 222:1 244:0.5 250:0.25 273:0.5 276:0.5 309:0.5 363:0.5 
0.403743778052786 1:0.166667 2:0.25 3:0.5 11:0.5 22:0.5 23:0.166667 25:0.25 26:0.25 38:0.25 39:0.666667 44:0.5 53:0.5 54:0.5 55:0.4 69:0.666667 70:0.5 78:1 80:0.25 92:0.25 101:0.25 102:0.5 112:0.5 116:0.333333 120:0.5 131:1 159:0.5 169:0.666667 170:1 193:0.5 206:0.333333 214:0.25 223:0.5 242:1 246:0.5 261:0.5 293:0.25 324:0.5 360:0.5 380:0.333333 381:0.5 382:1 
0.4325309061419961 3:0.5 19:0.166667 20:0.25 28:0.25 33:0.25 38:0.25 39:0.666667 44:1 46:0.166667 47:0.25 48:0.25 49:0.2 53:0.5 54:0.75 81:0.5 86:0.25 90:0.5 91:0.666667 101:0.25 116:0.333333 127:0.5 137:0.5 146:0.25 151:0.5 154:0.5 168:0.25 169:0.666667 170:1 171:0.25 172:0.25 176:0.25 186:0.5 192:0.666667 193:0.5 201:0.25 206:0.333333 213:0.5 214:0.5 230:0.666667 236:0.5 242:1 253:0.5 255:0.5 273:0.5 285:0.166667 286:0.5 293:0.25 320:0.5 321:0.5 325:0.5 329:0.5 350:0.5 351:0.5 383:0.5 384:0.5 385:0.5 
0.492269339524516 1:0.166667 18:0.25 19:0.333333 20:0.25 21:0.25 22:0.25 23:0.333333 24:0.333333 25:0.5 26:0.5 30:0.25 31:0.5 38:0.5 42:0.25 44:0.5 46:0.166667 47:0.25 48:0.25 49:0.2 54:0.75 55:0.2 58:0.333333 67:0.5 71:0.5 77:0.25 101:0.25 105:0.25 111:0.333333 118:0.333333 122:0.25 126:0.25 132:0.333333 165:1 168:0.25 192:0.666667 207:0.5 257:0.5 293:0.25 294:0.5 316:1 318:0.5 323:1 379:0.5 388:0.5 389:0.5 390:0.5 391:0.5 392:1 393:0.5 394:0.5 
0.3045491116794212 5:0.333333 8:0.333333 19:0.166667 23:0.333333 28:0.25 29:0.5 38:0.5 46:0.166667 47:0.25 48:0.25 49:0.2 54:0.25 58:0.333333 63:0.25 66:1 70:0.25 76:0.25 78:0.5 79:0.25 87:0.25 115:0.5 127:0.25 140:0.5 147:0.5 158:0.25 176:0.25 191:0.25 193:0.5 214:0.25 230:0.333333 242:1 244:0.5 252:0.5 275:0.5 283:0.5 297:0.5 383:1 395:0.5 396:1 397:1 
0.559993201664105 1:0.166667 2:0.25 11:0.5 12:0.5 18:0.25 19:0.166667 24:0.333333 25:0.25 38:0.5 40:0.25 42:0.25 48:0.25 53:0.25 54:0.25 61:0.5 71:0.5 72:1 80:0.5 92:0.5 127:0.5 150:0.5 155:0.5 156:0.5 158:0.25 168:0.25 179:0.5 192:0.666667 200:0.5 207:0.5 273:1 274:0.25 282:0.333333 290:0.25 293:0.25 299:0.5 320:1 321:1 336:0.5 341:0.5 398:0.5 400:1 401:1 402:0.5 
0.5295997218759607 1:0.166667 2:0.25 3:0.25 5:0.333333 9:1 23:0.333333 24:0.333333 25:0.5 26:0.5 27:0.25 31:0.25 44:0.25 58:0.333333 73:0.5 80:0.5 88:0.5 95:0.666667 105:0.25 106:0.5 109:0.5 121:0.25 124:0.25 126:0.5 134:0.5 142:0.5 145:0.333333 146:1 172:0.25 174:0.5 176:0.25 179:0.5 184:0.5 192:0.333333 198:0.5 203:0.5 208:0.5 212:0.25 233:0.5 243:0.5 255:0.5 258:0.666667 294:0.5 312:0.5 313:0.5 316:0.5 332:0.5 379:0.5 403:1 
0.4506473223158167 7:0.75 19:0.333333 27:0.25 30:0.25 31:0.25 32:0.5 46:0.333333 47:0.5 48:0.5 49:0.4 66:0.5 67:0.5 71:0.25 77:0.5 83:0.25 90:0.25 112:0.5 116:0.333333 117:0.5 121:0.25 132:0.333333 145:0.666667 146:0.5 148:0.666667 166:0.5 168:0.5 169:0.333333 172:0.25 173:0.5 193:0.25 196:0.666667 225:0.25 237:1 242:0.5 253:0.5 254:0.5 274:0.25 308:0.5 320:0.5 352:1 381:1 404:1 405:1 
1.492542156693421 21:0.5 23:0.333333 29:0.25 37:0.5 46:0.166667 50:0.666667 55:0.4 64:0.5 71:0.5 72:0.666667 76:0.25 77:0.75 80:0.25 81:1 91:0.333333 92:0.5 98:0.25 108:0.333333 111:0.333333 119:0.75 121:0.25 131:1 132:1 134:0.5 135:0.333333 140:0.25 144:0.5 154:0.5 160:0.5 173:0.5 174:0.5 175:0.333333 190:0.25 201:0.5 208:0.5 218:0.5 223:0.5 231:0.5 233:1 236:1 237:0.5 256:1 270:0.333333 306:0.25 307:0.5 342:0.5 350:1 351:0.5 368:1 379:0.5 393:1 398:0.5 404:0.5 407:0.5 408:1 409:1 410:0.5 
0.1468228458484041 5:0.333333 18:0.25 19:0.5 20:0.25 21:0.25 22:0.25 23:0.333333 24:0.333333 25:0.5 26:0.5 37:1 40:0.5 42:0.25 46:0.166667 47:0.25 48:0.25 49:0.4 51:0.25 55:0.4 71:0.25 80:0.25 83:0.25 84:0.5 87:0.25 98:0.5 113:0.25 154:0.25 160:0.25 166:0.75 181:0.5 184:0.5 190:0.25 205:0.333333 206:0.333333 214:0.25 227:0.5 258:0.333333 299:0.5 306:0.5 314:0.5 399:0.5 407:1 411:0.5 
0.07004513417693557 1:0.333333 2:0.5 5:0.333333 19:0.166667 20:0.5 25:0.5 40:0.25 43:0.5 46:0.166667 47:0.25 48:0.25 49:0.2 53:0.25 55:0.2 58:0.333333 64:0.5 71:0.5 72:0.666667 82:0.333333 86:0.75 89:0.5 95:0.333333 97:0.5 98:0.25 113:0.25 142:0.5 159:1 172:0.25 175:0.333333 176:0.25 188:0.25 208:0.5 250:0.75 251:0.5 256:0.5 270:0.333333 286:0.5 303:0.25 306:0.25 309:0.5 317:1 332:0.5 412:0.5 
0.783907072233791 8:0.166667 15:0.5 16:1 18:0.25 19:0.333333 20:0.5 21:0.25 22:0.25 23:0.166667 24:0.333333 25:0.5 26:0.5 34:0.25 46:0.166667 47:0.25 48:0.25 49:0.4 53:0.25 55:0.4 58:0.333333 70:0.25 77:0.25 86:0.25 87:0.5 95:0.333333 101:0.25 104:0.5 108:0.333333 113:0.25 142:1 143:1 144:1 166:0.25 171:0.25 191:0.25 195:0.25 214:0.25 225:0.25 247:0.5 262:0.5 269:0.5 273:0.5 276:0.5 279:0.5 286:0.5 288:1 293:0.25 294:0.5 317:1 330:0.5 332:0.5 354:0.5 363:0.5 370:0.5 
0.009451534259080579 9:1 12:0.5 18:0.25 19:0.166667 20:0.5 21:0.25 22:0.5 23:0.166667 24:0.333333 26:0.25 39:0.333333 40:0.75 54:0.25 55:0.8 69:0.333333 70:0.25 82:1 84:0.5 92:0.5 97:1 98:0.5 101:0.25 112:0.5 113:0.25 114:0.5 138:0.5 195:0.25 199:0.5 206:0.333333 220:1 221:0.5 222:0.5 258:0.333333 274:0.5 293:0.25 349:0.5 413:0.5 414:0.5 415:0.5 416:0.5 
0.1251943866457651 19:0.166667 22:0.25 28:0.25 34:0.25 35:0.25 40:0.25 41:0.25 42:0.25 46:0.166667 47:0.25 48:0.25 49:0.2 50:0.333333 55:0.4 58:0.333333 63:0.5 69:0.333333 70:0.25 71:0.5 72:0.666667 73:0.5 77:0.25 80:0.5 87:0.25 88:0.5 91:1 95:0.333333 97:0.5 105:0.25 117:0.5 119:0.25 121:0.5 126:0.25 132:0.333333 134:0.5 158:0.25 165:1 171:0.25 185:0.5 215:0.5 232:0.666667 250:0.25 253:0.5 295:0.333333 308:0.5 341:0.5 417:0.5 418:0.5 
0.9419963747708536 19:0.5 23:0.333333 27:0.25 31:0.25 32:0.5 44:0.25 45:0.5 46:0.333333 47:0.5 48:0.75 49:0.4 54:0.25 71:0.75 72:0.666667 74:0.5 79:0.25 83:0.25 86:0.25 87:0.5 88:0.5 101:0.25 104:0.5 107:0.5 121:0.5 131:0.5 132:0.333333 145:0.333333 148:0.333333 160:0.5 172:0.75 186:0.5 189:0.5 192:0.333333 194:0.5 195:0.5 207:0.5 215:0.5 232:0.333333 247:0.5 263:0.25 267:0.5 269:0.5 300:0.5 301:0.666667 375:0.5 390:0.5 421:0.5 422:1 
0.1215870092132222 3:0.5 7:0.25 8:0.166667 15:0.5 22:0.5 23:0.166667 39:1 44:0.5 46:0.166667 48:0.25 50:0.333333 53:0.5 54:0.5 55:0.4 61:0.5 62:0.5 69:0.666667 70:0.5 71:0.75 72:0.666667 77:0.5 83:0.25 92:0.25 104:0.5 132:0.333333 133:0.5 146:0.25 162:0.5 169:0.666667 170:1 171:0.25 174:0.5 198:0.25 214:0.25 225:0.25 251:0.5 253:1 276:0.5 291:0.5 328:0.5 360:0.5 
0.05450714183318683 19:0.166667 22:0.25 28:0.25 40:0.25 46:0.166667 47:0.25 48:0.25 49:0.2 52:0.5 55:0.2 62:1 69:0.333333 70:0.25 71:0.5 72:0.666667 77:0.5 91:0.333333 101:0.25 102:0.5 110:0.5 118:0.333333 121:0.25 126:0.25 129:0.5 133:0.5 144:0.5 158:0.25 178:0.5 188:0.25 190:0.25 192:0.333333 195:0.25 208:0.5 223:0.5 230:0.333333 267:0.5 268:0.5 276:0.5 281:0.666667 282:0.333333 295:0.166667 301:0.333333 302:0.5 303:0.25 306:0.25 352:0.5 375:0.5 423:1 424:1 425:0.5 
0.5718009549348855 11:0.5 12:0.5 18:0.5 19:0.333333 20:0.75 21:0.75 22:0.5 23:0.333333 24:0.666667 35:0.25 40:0.25 42:0.25 51:0.25 63:0.25 70:0.5 71:0.5 72:0.666667 73:1 86:0.25 93:0.666667 94:0.25 101:0.25 108:0.666667 127:0.25 175:0.333333 192:0.333333 195:0.5 207:0.5 215:0.5 229:0.5 243:0.5 261:0.5 262:0.5 264:1 269:0.5 294:0.5 295:0.166667 297:0.5 303:0.25 306:0.25 328:0.5 330:0.5 343:0.5 366:0.5 368:0.5 
0.9319114872175664 2:0.25 5:0.333333 22:0.25 23:0.166667 25:0.5 26:0.5 27:0.5 33:0.25 34:0.25 35:0.25 40:0.25 46:0.166667 55:0.4 56:0.25 57:0.5 58:0.333333 59:0.5 60:0.5 69:0.333333 70:0.25 80:0.25 83:0.25 101:0.5 106:0.5 109:1 110:0.5 123:0.5 126:0.5 134:0.5 136:0.5 148:0.333333 155:0.5 160:0.5 164:0.5 166:0.25 176:0.25 179:0.5 181:0.5 184:0.5 211:0.5 214:0.25 218:0.5 227:0.5 243:0.5 251:0.5 252:0.5 275:0.5 285:0.333333 294:0.5 302:0.5 312:0.5 313:0.5 318:1 328:0.5 329:0.5 385:1 
0.8155964384559738 9:1 18:0.25 19:0.166667 20:0.5 21:0.5 22:0.25 23:0.333333 24:0.333333 40:0.25 51:0.75 56:0.5 63:0.25 75:0.333333 76:0.25 80:0.5 98:0.25 108:0.333333 123:0.5 139:0.5 140:0.25 146:1 158:0.25 162:0.5 164:0.5 168:0.25 172:0.25 178:0.5 179:0.5 190:0.25 191:0.25 198:0.5 202:0.5 203:0.5 207:0.5 212:0.25 231:0.5 254:0.5 255:0.5 258:0.666667 261:0.5 279:0.5 295:0.166667 302:0.5 308:0.5 329:0.5 341:1 366:0.5 374:0.5 375:0.5 394:0.5 401:1 402:0.5 407:0.5 
0.4844008800646786 7:0.5 8:0.333333 18:0.25 19:0.166667 20:0.25 21:0.25 22:0.5 23:0.166667 24:0.333333 25:0.5 26:0.5 27:0.25 28:0.25 29:0.25 55:0.2 62:1 69:0.666667 70:0.25 73:0.5 77:0.5 83:0.25 85:0.25 87:0.25 102:0.5 110:0.5 117:0.5 118:0.333333 121:0.25 124:0.25 125:0.25 133:0.5 134:0.5 140:0.25 145:0.333333 172:0.5 174:0.5 186:0.5 195:0.25 212:0.25 228:0.5 253:0.5 267:0.5 275:0.5 280:0.5 283:0.5 399:0.5 423:1 424:1 433:1 
1.229267981851281 5:0.666667 7:0.25 26:0.75 28:0.25 35:0.5 38:0.5 40:0.5 54:0.5 66:1 71:0.5 72:0.666667 77:0.25 81:1 83:0.5 86:0.25 88:0.5 89:0.5 107:0.5 108:0.333333 122:0.25 125:0.25 127:0.5 154:0.5 158:0.5 168:0.25 180:0.5 190:0.25 200:0.5 201:0.5 212:0.25 214:0.75 215:0.5 224:0.5 227:0.5 231:0.5 236:1 243:0.5 253:1 274:0.25 294:0.5 301:0.333333 319:0.5 325:0.5 328:0.5 335:0.5 350:1 351:0.5 389:0.5 395:1 402:0.5 434:1 435:0.5 436:1 
0.7862377418179629 5:0.333333 6:0.5 8:0.166667 12:0.5 21:0.25 28:0.25 31:0.25 40:0.25 41:0.25 46:0.333333 50:0.333333 77:0.5 81:1 114:0.5 126:0.25 132:0.333333 135:0.333333 137:0.5 154:0.5 158:0.25 168:0.5 185:0.25 193:0.5 201:0.5 213:1 214:0.25 219:1 223:0.5 236:1 242:1 244:0.5 245:0.333333 253:0.5 256:0.5 262:0.5 267:0.5 269:0.5 283:0.5 294:0.5 302:0.5 306:0.25 328:0.5 330:0.5 338:1 341:0.5 350:1 351:0.5 368:0.5 374:0.5 
1.033988907707839 1:0.166667 7:0.25 18:0.25 19:0.166667 20:0.25 21:0.25 22:1 23:0.5 24:1 25:1 26:0.5 37:0.5 38:0.75 41:0.25 44:0.25 54:0.25 55:0.2 63:0.25 70:0.5 80:0.25 90:0.5 91:0.333333 92:0.25 101:0.25 119:0.5 121:0.25 131:0.5 138:0.5 139:0.5 140:0.75 160:0.25 181:0.5 194:0.5 195:0.25 213:0.5 232:0.333333 233:0.5 259:0.5 261:0.5 275:0.5 286:0.5 293:0.5 376:0.5 390:0.5 393:0.5 439:0.5 440:0.5 441:0.5 442:0.5 443:1 
0.2026905449943724 7:0.5 8:0.166667 19:0.166667 21:0.25 41:0.25 46:0.166667 47:0.25 48:0.25 49:0.2 50:0.333333 55:0.4 58:0.333333 70:0.25 71:0.5 72:0.666667 79:0.25 81:0.5 108:0.666667 117:0.5 118:0.333333 145:0.333333 154:0.75 158:0.25 160:0.5 172:0.25 195:0.5 196:0.333333 201:0.25 205:0.666667 206:0.666667 224:0.5 236:0.5 261:0.5 266:0.5 285:0.166667 336:0.5 341:0.5 350:0.5 351:0.25 433:1 444:0.5 445:1 
0.4081137309964094 1:0.166667 3:0.5 23:0.5 25:0.5 26:0.5 27:0.25 38:0.75 42:0.25 52:0.5 53:0.75 54:0.25 59:0.5 71:0.25 80:0.25 84:0.5 85:0.25 87:0.25 96:0.5 108:1 109:0.5 111:0.333333 121:0.25 127:0.5 128:0.5 158:0.25 159:0.5 171:0.25 173:0.5 177:0.333333 183:0.25 184:1 200:0.5 210:0.5 232:0.333333 251:0.5 277:0.5 278:1 283:0.5 294:1 296:1 297:1 312:0.5 313:0.5 370:0.5 
0.1225636384798225 1:0.166667 2:0.25 3:0.5 7:0.25 8:0.333333 19:0.5 40:0.25 44:0.25 46:0.333333 47:0.5 48:0.5 49:0.6 54:0.25 55:0.2 63:0.25 88:0.5 111:1 116:0.333333 121:0.25 125:0.25 154:0.5 160:0.5 166:0.25 168:0.25 186:0.5 192:0.333333 193:0.5 205:0.666667 206:0.666667 240:0.5 242:1 244:0.5 256:0.5 277:0.5 316:0.5 367:0.5 380:0.333333 412:0.5 425:1 
0.5513748889626856 3:0.75 14:0.5 18:0.25 19:0.5 20:0.25 21:0.25 22:0.25 23:0.333333 24:0.666667 25:0.25 26:0.25 35:0.5 40:0.25 41:0.25 42:0.25 46:0.166667 47:0.25 48:0.25 49:0.2 51:0.5 54:0.5 63:0.25 71:0.5 72:0.666667 80:0.25 86:0.5 91:0.333333 94:0.75 106:0.5 117:0.5 119:0.25 121:0.25 125:0.25 135:0.666667 149:0.5 158:0.25 162:0.5 168:0.25 188:0.25 201:0.25 225:0.25 230:0.333333 261:0.5 266:0.5 270:0.333333 274:0.25 276:0.5 279:0.5 299:0.5 306:0.25 313:1 332:0.5 338:1 341:0.5 393:0.5 418:0.5 446:0.5 447:0.5 
0.6267339570330042 5:0.333333 18:0.25 19:0.166667 20:0.25 27:0.25 29:0.5 31:0.25 32:0.5 40:0.75 41:0.25 46:0.333333 47:0.25 48:0.25 49:0.2 50:0.333333 55:0.4 68:0.5 71:0.5 72:0.666667 80:0.25 81:0.5 82:0.666667 95:0.333333 97:1 98:0.5 122:0.25 123:0.5 131:0.5 154:0.25 158:0.25 160:0.25 190:0.25 201:0.25 229:0.25 236:0.5 267:0.5 282:0.333333 299:1 321:0.5 332:0.5 337:0.5 344:0.5 350:0.5 351:0.25 411:0.5 448:0.5 449:1 
1.074626433314521 18:0.25 19:0.333333 20:0.75 21:0.25 22:0.25 23:0.166667 24:0.333333 26:0.5 27:0.25 32:0.5 39:0.666667 40:0.25 46:0.166667 47:0.25 48:0.25 49:0.2 63:0.25 71:0.5 72:0.666667 90:0.25 91:1 94:0.25 95:0.333333 112:1 113:0.5 114:1 121:0.25 136:0.5 137:0.5 148:0.333333 154:0.5 155:0.5 160:0.5 171:0.25 189:0.5 202:0.5 205:0.666667 206:0.666667 229:0.25 245:0.333333 256:0.5 260:0.5 267:0.5 269:0.5 274:0.25 294:0.5 299:0.5 303:0.25 363:0.5 366:0.5 380:0.333333 391:0.5 450:1 451:0.5 
0.4473780795434854 1:0.166667 5:0.333333 18:0.25 19:0.166667 20:0.25 21:0.25 22:0.5 23:0.166667 24:0.333333 28:0.25 40:0.25 41:0.75 49:0.2 50:0.666667 55:0.6 58:1 69:0.333333 70:0.5 77:0.75 86:0.25 111:0.333333 116:0.333333 119:0.25 121:0.25 125:0.25 132:0.666667 133:0.5 139:0.5 140:0.25 158:0.5 168:0.25 176:0.25 190:0.25 193:0.5 195:0.25 202:0.5 214:0.25 225:0.25 227:0.5 229:0.25 230:0.333333 231:0.5 232:0.333333 242:1 244:0.5 247:0.5 255:0.5 256:0.5 262:0.5 281:0.333333 295:0.166667 305:1 306:0.75 307:0.5 319:0.5 341:1 
1.27942919279945 5:0.333333 12:0.5 19:0.166667 20:0.5 23:0.5 27:0.25 35:0.5 48:0.25 56:0.5 57:1 58:0.333333 59:0.5 77:0.75 79:0.5 80:0.25 95:0.333333 101:0.5 111:0.333333 145:0.333333 148:0.333333 154:0.5 158:1 159:1 160:0.5 166:0.5 183:0.5 184:1 189:0.5 193:0.5 195:0.25 212:0.25 214:0.25 220:1 223:0.5 242:1 247:0.5 250:0.25 262:0.5 280:0.5 302:0.5 343:0.5 380:1 387:0.333333 408:1 437:0.5 455:1 456:1 
0.670918043305633 1:0.166667 7:0.25 20:0.25 23:0.166667 25:0.5 26:0.5 27:0.25 28:0.25 35:0.75 39:0.333333 40:0.5 42:0.25 44:0.5 46:0.166667 50:0.666667 51:0.5 52:1 53:0.5 54:0.5 55:0.4 61:0.5 77:0.25 79:0.25 106:0.5 109:0.5 121:0.25 123:0.5 124:0.25 126:0.25 138:1 145:0.333333 147:0.5 154:0.25 160:0.25 177:0.333333 179:0.5 184:0.5 187:0.5 191:0.25 205:0.333333 206:0.333333 209:1 225:0.25 241:0.5 244:0.5 245:0.333333 258:0.333333 260:0.5 269:0.5 275:0.5 276:0.5 277:0.5 290:0.25 302:0.5 312:0.5 313:0.5 322:0.5 337:0.5 362:0.5 363:0.5 374:0.5 402:0.5 
0.06982839734853355 15:0.5 19:0.333333 20:0.25 25:0.5 26:0.5 27:0.5 31:0.25 39:0.333333 44:0.25 46:0.166667 47:0.25 48:0.5 49:0.2 87:0.75 89:0.5 116:0.333333 121:0.75 125:0.25 127:0.25 135:0.333333 139:0.5 164:0.5 185:0.25 190:0.25 192:0.333333 195:0.5 226:0.5 229:0.5 244:0.5 253:0.5 264:1 268:0.5 273:0.5 275:0.5 281:0.333333 294:0.5 320:0.5 321:0.5 425:0.5 431:1 
0.7287795111579809 3:0.5 5:0.333333 10:0.5 18:0.25 19:0.333333 20:1 21:0.25 22:0.25 23:0.166667 24:0.333333 46:0.166667 47:0.25 48:0.25 49:0.2 50:0.333333 64:0.5 71:0.75 72:0.666667 77:0.25 81:0.5 83:0.5 86:0.25 93:0.333333 98:0.25 104:0.5 108:0.333333 124:0.5 132:0.333333 142:1 164:1 168:0.25 187:0.5 188:0.25 191:0.25 206:0.333333 214:0.25 224:0.5 228:1 229:0.25 245:0.333333 254:0.5 267:0.5 268:1 277:1 297:1 306:0.25 309:0.5 338:0.5 343:0.5 399:0.5 457:0.5 458:0.5 
1.154883550278637 1:0.333333 3:0.5 7:0.75 18:0.25 19:0.166667 20:0.25 21:0.25 22:0.5 23:0.166667 24:0.333333 29:0.5 38:0.5 39:0.666667 40:0.25 42:0.25 44:0.5 53:0.5 54:1 55:0.2 61:1 63:0.25 66:0.5 69:0.333333 70:0.25 71:0.5 72:0.666667 79:1 86:0.5 87:0.25 94:0.5 139:0.5 140:0.25 169:0.666667 170:1 171:0.25 172:0.25 190:0.25 191:0.5 195:0.25 198:0.25 223:0.5 228:0.5 230:0.666667 268:0.5 295:0.166667 299:1 303:0.25 320:0.5 378:0.5 379:0.5 380:0.333333 406:1 
0.7357367498465046 3:0.5 12:1 19:0.166667 22:0.25 34:0.25 35:0.25 37:0.5 39:0.666667 44:0.5 46:0.166667 47:0.25 48:0.5 49:0.2 53:0.5 54:0.5 55:0.4 63:0.5 69:0.333333 70:0.25 71:0.5 72:0.666667 83:0.25 91:0.666667 95:0.333333 101:0.5 106:0.5 108:0.666667 116:0.666667 121:0.25 137:0.5 146:0.25 162:0.5 169:0.666667 170:1 171:0.5 172:0.25 183:0.5 190:0.25 195:0.5 198:0.25 200:0.5 201:0.25 214:0.25 251:0.5 275:0.5 280:0.5 281:0.333333 282:0.333333 343:0.5 344:1 345:1 
0.2919638665946728 19:0.666667 23:0.5 29:0.25 35:0.25 40:0.5 46:0.333333 47:0.5 48:0.5 49:0.4 55:0.8 71:1 72:0.666667 76:0.5 82:1 86:0.25 97:1 98:0.5 99:1 105:0.25 111:0.333333 135:0.333333 164:0.5 171:0.25 197:0.5 200:0.5 201:0.25 250:0.25 256:0.5 294:0.5 379:0.5 459:1 
1.012849861027722 3:0.5 5:0.333333 9:0.5 18:0.5 19:0.666667 20:0.5 21:0.5 22:0.5 23:0.5 24:0.666667 27:0.25 28:0.5 29:0.5 30:0.5 31:0.25 36:1 40:0.25 70:0.5 76:0.25 79:0.25 84:0.5 91:0.666667 92:0.25 93:0.333333 102:0.5 105:0.25 106:0.5 111:0.333333 116:0.666667 121:0.25 134:0.5 164:0.5 179:0.5 193:1 194:1 196:0.333333 207:0.5 212:0.25 220:0.5 221:0.5 222:0.5 240:0.5 242:1 243:0.5 262:1 294:0.5 295:0.166667 308:0.5 353:0.5 425:0.5 460:1 
0.9821569590673824 5:0.333333 7:0.25 19:0.166667 27:0.25 33:0.25 46:0.166667 47:0.25 48:0.25 49:0.2 54:0.5 76:0.25 81:0.5 105:0.25 111:0.666667 116:0.333333 121:0.5 131:1 137:0.5 140:0.5 154:0.75 160:0.5 162:0.5 172:0.25 175:0.333333 186:0.5 189:0.5 193:0.5 194:1 195:0.75 201:0.25 205:0.666667 206:0.666667 223:0.5 230:0.333333 232:0.666667 236:0.5 242:1 250:0.25 252:0.5 253:0.5 255:0.5 261:0.5 266:0.5 269:0.5 279:0.5 281:0.333333 293:0.25 307:0.5 346:0.5 350:0.5 351:0.25 352:0.5 399:0.5 419:1 
0.8579344574003044 1:0.166667 18:0.25 19:0.166667 20:0.25 21:0.25 22:0.25 23:0.333333 24:0.333333 25:0.5 26:0.5 27:0.5 29:0.5 30:0.25 55:0.8 58:0.333333 70:0.5 73:0.5 82:0.333333 83:0.25 84:0.5 85:0.25 86:0.25 116:0.333333 119:0.25 121:0.5 124:0.25 125:0.25 134:1 140:0.5 142:0.5 154:0.5 160:0.5 171:0.25 172:0.25 185:0.25 189:0.5 195:0.5 202:0.5 205:0.666667 206:0.666667 214:0.5 223:0.5 227:0.5 228:0.5 230:0.333333 232:0.333333 247:1 254:0.5 260:0.5 262:0.5 270:0.333333 289:0.5 293:0.25 305:1 319:1 343:0.5 
0.1314224519240283 1:0.166667 3:0.25 5:0.333333 8:0.333333 19:0.666667 23:0.333333 25:0.5 26:0.5 27:0.25 36:0.5 38:0.25 39:0.333333 40:0.5 43:0.25 45:0.5 46:0.333333 47:0.5 48:1 49:0.4 53:0.25 70:0.25 80:0.5 90:0.5 106:0.5 119:0.25 121:0.25 124:0.25 147:0.5 158:0.25 159:0.5 168:0.5 184:0.5 188:0.25 211:0.5 214:0.25 215:1 222:0.5 229:0.25 252:0.5 257:0.5 263:0.25 279:0.5 307:0.5 343:0.5 435:0.5 461:1 
1.507495473819666 3:0.5 5:0.333333 8:0.166667 9:0.5 19:0.333333 20:0.75 21:0.25 28:0.5 34:0.25 36:1 46:0.5 47:0.5 48:0.5 49:0.4 50:0.333333 51:0.25 56:0.5 71:0.5 72:0.666667 75:0.666667 80:0.25 86:0.25 90:0.25 91:1 94:0.25 95:0.333333 109:0.5 111:0.333333 118:0.333333 125:0.25 131:0.5 140:0.25 142:0.5 158:0.5 168:0.25 171:0.5 172:0.25 177:0.333333 184:0.5 214:0.25 240:0.5 243:0.5 256:0.5 295:0.333333 299:0.5 321:0.5 337:0.5 340:0.5 342:0.5 380:0.666667 394:1 411:0.5 425:0.5 
0.2904693654616732 1:0.166667 2:0.25 3:0.25 8:0.166667 19:0.333333 24:0.333333 28:0.25 29:0.75 39:0.333333 40:0.25 44:0.5 46:0.333333 47:0.5 48:0.5 49:0.4 52:0.5 55:0.2 71:0.25 77:0.75 78:0.5 91:0.333333 92:0.25 107:0.5 108:0.333333 116:0.333333 121:0.25 131:0.5 132:0.333333 140:0.25 147:0.5 150:0.5 154:0.5 160:0.5 174:0.5 177:0.333333 185:0.25 192:0.333333 193:0.5 195:0.25 205:0.666667 206:0.666667 225:0.25 242:1 250:0.25 251:0.5 263:0.25 268:0.5 280:0.5 282:0.333333 307:0.5 309:0.5 316:0.5 318:0.5 398:0.5 
0.6083897544378064 7:0.25 23:0.166667 25:0.5 26:0.5 27:0.5 32:0.5 34:0.25 35:0.5 40:0.25 42:0.25 46:0.333333 54:0.25 66:0.5 73:1 76:0.25 77:0.25 80:0.25 84:0.5 85:0.25 87:0.25 89:0.5 96:0.5 101:0.75 102:1 107:0.5 108:0.333333 109:0.5 119:0.25 121:0.5 124:0.25 125:0.25 126:0.25 134:0.5 155:1 158:0.5 159:0.5 168:0.25 178:0.5 183:0.25 184:1 190:0.25 195:0.5 223:0.5 231:0.5 243:0.5 277:0.5 278:1 284:0.5 285:0.166667 301:0.333333 303:0.25 312:0.5 313:0.5 342:0.5 352:0.5 357:0.5 361:0.5 362:0.5 398:0.5 464:1 
0.8646088491508502 12:1 19:0.333333 46:0.333333 47:0.5 48:0.5 49:0.4 71:0.75 72:0.666667 73:0.5 76:0.5 77:0.25 79:0.25 80:0.75 86:0.25 89:0.5 91:0.666667 99:0.5 100:1 101:0.5 102:0.5 103:0.5 119:0.5 121:0.25 132:0.333333 137:0.5 168:0.5 171:0.25 172:0.25 173:0.5 175:0.333333 176:0.25 177:0.333333 185:0.25 190:0.5 194:0.5 195:0.75 208:1 253:0.5 282:0.333333 297:0.5 299:0.5 306:0.25 325:0.5 328:0.5 342:1 398:1 
0.9757003527318009 12:1 18:0.25 19:0.333333 20:0.25 21:0.25 22:0.25 23:0.166667 24:0.333333 30:0.5 41:0.25 42:0.25 46:0.166667 47:0.25 48:0.25 49:0.2 50:0.333333 58:0.333333 71:0.5 72:0.666667 80:0.5 84:0.5 86:0.25 90:0.25 91:0.666667 92:0.25 94:0.25 101:0.5 104:0.5 113:0.75 115:0.5 116:0.666667 121:0.25 122:0.25 127:0.25 135:0.333333 142:1 143:1 144:1 145:0.333333 154:0.25 158:0.25 168:0.25 180:0.5 185:0.25 195:0.5 230:0.666667 269:0.5 270:1 299:1 306:0.5 341:0.5 344:1 345:1 363:0.5 
0.9586493434822212 9:0.5 10:0.5 19:0.166667 29:0.25 34:0.25 35:0.25 46:0.166667 47:0.25 48:0.25 49:0.2 58:0.666667 61:0.5 71:0.5 72:0.666667 76:0.5 77:0.5 78:1 80:0.25 81:0.5 86:0.25 92:0.25 93:0.333333 94:0.25 103:0.5 105:0.25 108:0.333333 119:0.25 123:0.5 138:0.5 140:0.5 146:0.25 154:0.75 160:0.5 164:0.5 175:0.333333 178:1 199:0.5 201:0.25 205:0.666667 206:0.666667 212:0.25 229:0.25 231:0.5 233:0.5 236:0.5 254:0.5 295:0.166667 302:0.5 306:0.25 315:1 329:0.5 349:0.5 350:0.5 351:0.25 393:0.5 465:1 
0.7802299685146347 3:0.5 7:0.25 8:0.166667 18:0.25 19:0.166667 20:0.75 21:0.25 22:0.5 23:0.166667 24:0.666667 29:0.25 35:0.25 40:0.25 55:0.2 56:0.25 61:0.5 69:0.333333 70:0.25 77:0.25 92:0.75 106:0.5 126:0.25 149:0.5 154:0.25 166:0.25 168:1 189:0.5 193:0.5 199:0.5 209:0.5 213:0.5 240:0.25 242:1 243:0.5 255:0.5 277:1 297:1 307:0.5 325:0.5 330:0.5 332:0.5 334:0.5 343:0.5 361:0.5 381:0.5 394:0.5 463:0.5 466:0.5 467:1 468:1 
1.220590731816836 7:0.25 19:0.333333 46:0.333333 47:0.5 48:0.5 49:0.4 50:0.666667 61:0.5 70:0.5 71:0.5 72:0.666667 80:0.5 83:1 86:0.25 87:0.25 118:0.333333 122:0.25 126:0.25 128:1 130:0.5 138:0.5 140:0.25 173:0.5 176:0.5 177:0.333333 188:0.25 190:0.25 195:0.25 207:1 216:0.5 223:0.5 228:0.5 230:0.333333 237:0.5 244:0.5 252:0.5 261:1 270:0.333333 276:0.5 277:0.5 282:0.666667 297:1 299:1 309:0.5 351:0.5 359:0.5 370:0.5 393:1 469:1 
1.14638436871865 7:0.25 8:0.166667 13:0.5 19:0.166667 22:0.25 23:0.166667 35:0.5 37:1 40:0.25 44:0.25 46:0.166667 47:0.25 48:0.25 49:0.2 54:0.25 55:0.2 61:0.5 62:0.5 63:0.25 68:0.5 69:0.333333 70:0.25 71:0.5 72:0.666667 87:0.25 91:0.666667 94:0.25 101:0.5 121:0.5 127:0.25 137:0.5 146:0.5 154:0.25 172:0.25 178:1 187:0.5 213:0.5 214:0.25 219:0.5 229:0.25 230:0.666667 231:0.5 240:0.25 272:1 280:0.5 294:1 302:0.5 306:0.25 307:0.5 309:0.5 332:0.5 359:0.5 373:0.5 374:0.5 470:1 471:1 
0.4997284592088714 1:0.333333 19:0.5 20:0.5 22:0.25 23:0.333333 25:0.25 26:0.25 35:0.25 46:0.166667 47:0.25 48:0.25 49:0.2 53:0.25 55:0.2 63:0.25 69:0.333333 70:0.25 71:0.5 72:0.666667 75:0.333333 79:0.25 80:0.25 87:0.75 90:0.25 91:1 92:0.25 94:0.25 98:0.25 101:0.5 102:0.5 103:0.5 106:0.5 120:0.5 124:0.25 128:1 143:0.5 168:0.25 188:0.25 200:0.5 229:0.25 230:0.333333 232:0.666667 261:0.5 262:0.5 268:0.5 275:0.5 283:0.5 299:0.5 308:0.5 353:0.5 366:0.5 380:0.333333 400:1 412:0.5 
0.6825176116570519 7:0.25 18:0.5 19:0.333333 20:0.25 21:0.25 22:0.5 23:0.166667 24:0.333333 34:0.25 48:0.25 55:0.2 69:0.333333 70:0.25 71:0.5 72:0.666667 76:0.25 77:0.25 87:0.25 88:0.5 95:0.333333 96:0.5 100:1 101:0.25 102:0.5 105:0.25 106:0.5 107:0.5 108:0.666667 117:0.5 126:0.25 131:0.5 132:0.333333 138:0.5 145:0.333333 150:0.5 169:0.333333 176:0.25 181:0.5 186:0.5 195:1 199:0.5 221:0.5 277:1 280:0.5 281:0.333333 292:0.5 293:0.25 295:0.166667 300:1 301:0.666667 308:0.5 370:0.5 416:0.5 473:0.5 
0.6297773758502793 1:0.166667 3:0.75 5:0.666667 7:0.75 18:0.25 19:0.166667 20:0.25 21:0.25 22:0.5 23:0.166667 24:1 29:0.25 30:0.25 36:0.5 40:0.75 43:0.25 51:0.5 55:0.6 63:0.25 66:0.5 69:0.333333 70:0.5 82:0.666667 88:0.5 93:0.333333 97:1 98:0.5 108:0.666667 111:0.333333 119:0.25 122:0.25 125:0.25 126:0.25 138:0.5 145:0.666667 152:0.5 174:0.5 195:0.75 240:0.25 245:0.333333 251:0.5 254:0.5 274:0.75 301:0.333333 302:1 308:0.5 318:0.5 329:0.5 332:0.5 374:0.5 
0.6388836627093718 5:0.333333 7:0.25 18:0.25 19:0.166667 20:0.25 21:0.25 22:0.5 23:0.166667 24:0.333333 26:0.25 34:0.25 35:0.25 38:0.5 39:0.333333 44:0.5 54:0.5 55:0.4 62:0.5 69:0.333333 70:0.5 71:0.5 72:0.666667 77:0.25 80:0.25 82:0.333333 86:0.5 95:0.333333 106:0.5 108:1 127:0.5 133:0.5 134:0.5 135:0.333333 146:0.5 147:0.5 148:0.666667 154:0.75 158:0.5 160:0.5 164:0.5 171:0.25 172:0.25 173:0.5 186:0.5 187:0.5 197:0.5 205:0.333333 206:0.333333 208:0.5 213:1 214:0.75 225:0.25 231:0.5 256:0.5 293:0.25 294:0.5 
0.5692641976249504 3:0.25 12:1 14:0.5 19:0.333333 23:0.333333 32:0.5 35:0.25 38:0.25 51:0.25 53:0.25 71:0.25 72:0.333333 76:0.25 83:0.5 91:0.333333 107:0.5 111:0.666667 121:0.5 127:0.25 138:0.5 142:1 164:0.5 179:0.5 183:0.5 193:0.25 195:0.5 196:0.666667 207:1 228:1 274:0.25 281:1 290:0.25 293:0.25 296:0.5 297:0.5 299:0.5 341:0.5 434:1 
0.6144214109737944 3:0.25 5:0.666667 7:0.5 8:0.333333 9:0.5 12:0.5 19:0.166667 22:0.5 27:0.25 30:0.5 32:1 33:0.25 35:0.25 48:0.25 55:0.4 69:0.666667 70:0.5 71:0.5 72:0.666667 74:0.5 75:0.333333 79:0.25 80:0.25 91:0.666667 96:0.5 107:0.5 110:0.5 116:0.333333 117:1 118:0.666667 121:0.5 123:0.5 136:0.5 138:1 145:0.666667 187:0.5 193:0.25 195:0.25 211:0.5 231:0.5 243:0.5 275:0.5 276:0.5 299:0.5 306:0.25 308:0.5 370:0.5 416:0.5 475:0.5 
1.316698176353267 3:0.25 8:0.333333 23:0.166667 35:0.25 38:0.25 53:0.25 54:0.75 55:0.4 58:0.333333 68:0.5 71:0.5 72:0.666667 75:0.333333 77:0.25 81:1 85:0.5 91:0.333333 93:0.333333 94:0.25 103:1 105:0.25 108:0.333333 111:0.666667 121:0.25 126:0.25 127:0.25 154:0.5 157:0.5 158:0.25 165:1 168:0.25 171:0.25 175:0.333333 176:0.25 177:0.333333 179:0.5 185:0.25 197:0.5 201:0.5 202:1 204:0.5 212:0.5 220:0.5 225:0.25 232:0.666667 236:1 238:1 244:0.5 280:0.5 294:0.5 296:0.5 297:0.5 299:0.5 350:1 351:0.5 425:1 461:1 473:0.5 476:1 
1.014325348681781 1:0.166667 6:0.5 9:1 18:0.25 19:0.166667 20:0.25 21:0.25 22:0.5 23:0.166667 24:0.333333 25:0.75 26:0.5 27:0.25 32:0.5 34:0.25 44:0.25 50:0.333333 55:0.2 66:0.5 68:0.5 69:0.333333 70:0.25 80:0.25 84:1 92:0.25 94:0.5 95:0.333333 101:0.25 111:0.333333 113:0.25 121:0.25 125:0.25 134:0.5 135:0.333333 154:0.5 160:0.5 168:0.25 171:0.25 192:0.333333 195:0.25 202:0.5 205:0.666667 206:0.666667 220:1 221:1 222:1 223:0.5 226:0.5 230:0.333333 244:0.5 268:0.5 269:0.5 277:0.5 283:0.5 328:0.5 332:0.5 377:0.5 412:0.5 435:0.5 453:0.5 
0.09520267978848931 3:0.25 5:0.333333 7:0.75 8:0.166667 19:0.166667 26:0.25 46:0.166667 47:0.25 48:0.25 49:0.2 55:0.4 60:0.5 61:0.5 78:0.5 81:0.5 87:0.5 104:0.5 105:0.25 145:0.666667 146:0.5 147:1 148:0.666667 154:0.25 166:0.5 193:0.5 195:0.75 196:0.666667 201:0.25 223:0.5 224:0.5 236:0.5 237:1 242:1 256:0.5 285:0.333333 303:0.25 328:0.5 350:0.5 351:0.25 363:0.5 394:0.5 444:1 
0.6404082714036559 7:0.25 8:0.166667 19:0.166667 20:0.25 22:0.25 23:0.166667 35:0.5 43:0.25 44:0.5 46:0.166667 47:0.25 48:0.25 49:0.2 50:0.666667 51:0.5 52:1 53:0.5 54:0.5 55:0.6 69:0.333333 70:0.25 71:0.5 72:0.666667 73:0.5 77:0.25 91:0.333333 95:1 101:0.25 116:0.333333 118:0.333333 121:0.25 125:0.25 132:0.333333 148:0.333333 156:0.5 166:0.25 208:0.5 264:0.5 274:0.5 290:0.25 299:0.5 308:0.5 325:0.5 332:0.5 354:0.5 363:0.5 477:0.5 478:1 
0.2171662986620534 1:0.333333 2:0.5 3:0.5 7:0.25 32:0.5 35:0.25 38:0.25 39:0.333333 40:0.5 41:0.25 42:0.5 44:0.5 55:0.2 56:0.25 58:0.333333 61:0.5 63:0.25 71:0.75 72:0.666667 75:0.333333 77:0.25 81:0.5 87:0.5 90:0.5 115:0.5 116:0.333333 119:0.25 121:0.25 124:0.25 138:0.5 148:0.333333 154:0.25 158:0.25 172:0.5 173:0.5 174:0.5 177:0.333333 192:0.333333 200:1 201:0.25 223:0.5 224:0.5 225:0.25 236:0.5 245:0.333333 268:0.5 274:0.25 277:0.5 293:0.25 309:0.5 330:0.5 350:0.5 351:0.25 363:0.5 380:0.333333 394:0.5 402:0.5 458:0.5 
0.1304335250901417 10:1 19:0.166667 20:0.25 34:0.25 46:0.166667 47:0.25 48:0.25 49:0.2 52:0.5 53:0.5 58:0.333333 71:0.5 72:0.666667 87:0.25 91:0.666667 95:0.333333 102:0.5 106:0.5 111:0.333333 113:0.25 121:0.5 123:0.5 124:0.25 132:0.333333 140:0.25 144:0.5 166:0.5 203:0.25 206:0.333333 212:0.5 232:0.333333 276:0.5 286:0.5 295:0.166667 307:1 317:1 332:0.5 342:0.5 343:0.5 363:0.5 412:0.5 421:1 
0.1397417866005471 1:0.333333 2:0.5 3:0.25 19:0.166667 25:0.25 42:0.25 46:0.166667 47:0.25 48:0.25 49:0.2 71:0.5 72:0.666667 101:0.25 103:0.5 137:0.5 154:0.5 159:0.5 160:0.5 205:0.666667 206:0.666667 308:1 353:0.5 385:0.5 479:0.5 
0.7188132780399376 1:0.166667 3:0.25 7:0.25 20:0.5 22:0.25 23:0.5 25:0.5 26:0.75 29:0.25 39:0.333333 46:0.5 48:0.25 54:0.25 55:0.6 69:0.333333 70:0.25 71:0.5 77:0.5 82:0.333333 90:0.25 101:0.25 108:0.666667 109:0.5 112:0.5 113:0.25 114:0.5 124:0.25 125:0.25 132:0.666667 133:0.5 140:0.25 146:0.5 155:0.5 159:0.5 160:0.75 171:0.5 177:0.333333 184:1 185:0.25 186:0.5 188:0.25 189:0.5 195:0.25 198:0.5 203:0.5 231:0.5 245:0.333333 256:1 275:0.5 285:0.166667 290:0.25 312:0.5 313:0.5 366:0.5 412:1 
0.5111916140848334 22:0.25 25:0.5 26:0.5 29:0.25 40:0.5 49:0.2 55:0.6 65:1 69:0.333333 70:0.25 81:0.5 82:0.666667 87:0.5 91:0.333333 97:1 98:0.5 101:0.25 104:0.5 126:0.25 127:0.5 131:0.5 146:0.25 154:0.25 166:0.25 191:0.25 192:0.666667 196:0.333333 201:0.25 213:0.5 236:0.5 243:0.5 255:0.5 259:0.5 273:1 275:0.5 281:0.333333 295:0.666667 302:0.5 303:0.25 306:0.25 308:0.5 320:1 321:1 350:0.5 351:0.25 358:0.5 370:0.5 376:0.5 390:0.5 425:0.5 482:0.5 
0.3203417110111213 1:0.166667 2:0.25 5:0.333333 19:0.666667 23:0.333333 26:0.25 38:0.25 40:0.25 44:0.25 46:0.333333 47:0.5 48:1 49:0.4 54:0.25 62:0.5 70:0.25 71:1 72:0.666667 73:0.5 77:0.25 86:0.5 87:0.25 98:0.25 103:0.5 105:0.25 108:0.666667 116:0.333333 121:0.25 123:0.5 132:0.333333 155:0.5 165:0.5 175:0.333333 185:0.25 188:0.25 208:0.5 214:0.25 215:1 229:0.25 257:0.5 261:0.5 263:0.25 269:0.5 274:0.25 276:0.5 279:0.5 290:0.25 295:0.166667 306:0.25 328:0.5 472:1 
0.6670065320500461 5:0.333333 9:0.5 19:0.333333 23:0.166667 27:0.5 30:0.5 44:0.25 56:0.25 58:0.333333 74:1 75:0.666667 76:0.25 77:0.5 78:1 81:0.5 82:0.333333 83:0.25 84:0.5 85:0.25 94:0.25 96:0.5 101:0.25 119:0.25 121:0.5 131:0.5 135:0.333333 140:0.25 142:0.5 154:0.25 160:0.25 172:0.25 176:0.75 178:1 192:0.333333 195:0.25 196:0.333333 201:0.25 233:0.5 236:0.5 244:0.5 253:0.5 270:0.333333 274:0.5 275:0.5 281:0.333333 293:0.25 294:1 328:0.5 329:0.5 349:0.5 350:0.5 351:0.25 393:0.5 394:0.5 
0.08605799519060109 3:0.25 19:0.166667 20:0.25 22:0.25 23:0.166667 39:0.333333 40:0.5 41:0.5 46:0.333333 47:0.25 48:0.25 49:0.2 50:0.666667 55:0.6 58:0.666667 63:0.25 66:0.5 69:0.333333 70:0.25 71:0.75 72:0.666667 73:0.5 77:0.5 86:0.25 90:0.5 101:0.25 102:0.5 108:0.333333 120:0.5 121:0.25 132:0.666667 135:0.666667 158:0.5 160:0.25 195:0.25 250:0.25 255:0.5 267:0.5 268:0.5 277:0.5 282:0.333333 283:0.5 297:0.5 341:1 377:0.5 480:0.5 481:0.5 
0.8341646835304279 11:0.5 19:0.166667 20:0.25 30:0.25 38:0.5 46:0.166667 47:0.25 48:0.25 49:0.4 53:0.25 54:0.5 66:1 79:0.25 82:0.333333 83:0.5 84:0.5 85:0.75 103:1 113:0.5 123:0.5 124:0.5 126:0.25 129:0.5 145:0.333333 149:1 173:0.5 184:0.5 187:0.5 193:0.5 202:0.5 218:1 221:0.5 242:1 243:1 273:1 302:0.5 325:0.5 329:0.5 363:0.5 421:1 
0.4257741022978576 3:0.25 8:0.166667 19:0.333333 22:0.25 23:0.333333 30:0.25 38:0.5 40:0.5 46:0.166667 47:0.25 48:0.25 49:0.4 53:0.25 55:0.4 58:0.666667 68:0.5 71:0.5 72:0.666667 73:0.5 77:0.25 80:0.25 81:0.5 82:0.666667 83:0.5 86:0.25 87:0.75 94:0.25 95:0.333333 97:1 98:0.5 117:0.5 122:0.25 123:0.5 127:0.5 130:0.5 131:0.5 150:0.5 154:0.25 155:0.5 172:0.25 201:0.25 209:0.5 230:0.333333 236:0.5 251:0.5 252:0.5 270:0.333333 282:0.333333 285:0.166667 290:0.25 293:0.5 296:0.5 297:1 308:0.5 336:0.5 350:0.5 351:0.25 398:0.5 425:0.5 
0.6650220173193588 2:0.25 8:0.166667 12:1 19:0.333333 27:0.25 34:0.25 38:0.25 43:0.25 46:0.333333 47:0.5 48:0.5 49:0.4 51:0.5 55:0.2 58:0.333333 72:0.333333 92:1 94:0.25 101:0.25 103:0.5 107:0.5 116:0.333333 119:0.25 122:0.25 123:0.5 124:0.25 138:0.5 145:0.333333 158:0.25 171:0.25 179:0.5 183:0.25 188:0.25 193:0.25 195:0.25 204:1 224:0.5 230:0.333333 233:0.5 254:0.5 267:0.5 276:0.5 280:0.5 290:0.25 319:0.5 322:0.5 334:0.5 341:0.5 344:0.5 345:0.5 368:0.5 370:0.5 387:0.333333 393:0.5 444:0.5 483:1 
0.6142171437995735 5:0.333333 19:0.166667 20:0.5 23:0.166667 25:0.5 26:0.5 28:0.25 32:0.5 34:0.25 35:0.25 40:0.75 46:0.166667 47:0.25 48:0.25 49:0.2 55:0.4 82:0.666667 83:0.25 85:0.25 95:0.666667 97:1 98:0.75 104:0.5 112:0.5 113:0.25 124:0.25 140:0.25 160:0.25 166:0.25 176:0.25 181:0.5 185:0.25 214:0.25 223:0.5 227:0.5 232:0.333333 254:0.5 260:0.5 261:0.5 268:0.5 294:0.5 295:0.333333 307:0.5 332:0.5 371:1 372:1 412:0.5 
0.3250994234727222 11:0.5 12:0.5 18:0.25 22:0.25 24:0.333333 29:0.5 38:0.5 42:0.25 54:0.25 55:0.2 56:0.25 69:0.333333 70:0.25 71:0.5 72:0.666667 77:0.25 78:1 80:0.25 86:0.25 104:0.5 107:0.5 119:0.5 139:0.5 140:0.5 156:0.5 158:0.5 159:0.5 168:0.25 178:0.5 183:0.25 184:1 207:0.5 275:0.5 283:0.5 299:0.5 306:0.25 319:0.5 329:0.5 334:1 341:0.5 357:0.5 376:0.5 393:0.5 420:0.5 484:1 
0.4376033252565558 2:0.25 3:0.25 5:0.333333 17:0.5 18:0.25 19:0.5 20:0.25 21:0.25 22:0.5 23:0.666667 24:0.333333 30:0.5 32:0.5 38:0.25 46:0.166667 48:0.5 53:0.25 55:0.2 69:0.333333 70:0.5 78:0.5 91:0.333333 92:0.5 103:0.5 104:1 123:0.5 125:0.25 127:0.25 147:0.5 155:0.5 158:0.25 174:0.5 176:0.25 189:0.5 193:0.5 195:0.5 215:1 242:1 254:0.5 261:0.5 262:0.5 275:0.5 276:0.5 279:0.5 283:0.5 290:0.25 296:0.5 297:0.5 340:0.5 343:0.5 380:0.333333 388:0.5 415:0.5 425:0.5 
0.8199809275856734 14:0.5 18:0.25 19:0.5 20:0.25 21:0.5 22:0.25 23:0.333333 24:0.333333 50:0.333333 71:0.5 72:0.666667 74:1 75:0.666667 76:0.25 77:0.25 81:0.5 86:0.25 87:0.5 91:0.333333 119:0.25 121:0.25 131:0.5 132:0.333333 136:1 139:0.5 151:0.5 154:0.25 160:0.25 176:0.25 197:0.5 199:0.5 201:0.25 202:0.5 204:0.5 230:1 233:0.5 236:0.5 251:0.5 252:0.5 254:0.5 263:0.25 268:0.5 280:0.5 295:0.166667 329:0.5 343:1 350:0.5 351:0.25 352:0.5 363:0.5 368:0.5 381:0.5 393:0.5 404:0.5 408:0.5 409:0.5 
1.193678346545703 7:0.5 22:0.5 25:0.5 26:0.5 31:0.25 44:0.25 54:0.25 55:0.4 63:0.25 69:1 70:0.5 80:0.25 101:0.25 107:0.5 124:0.25 126:0.25 127:0.5 142:0.5 145:0.666667 146:0.5 148:0.666667 152:0.5 156:0.5 166:0.5 172:0.25 192:0.666667 196:1 237:1 245:1 252:0.5 267:1 268:1 269:0.5 273:1 275:0.5 276:0.5 279:0.5 304:1 307:0.5 320:1 321:1 342:0.5 397:0.5 428:0.5 444:0.5 461:1 467:0.5 
0.5860044536262404 1:0.333333 2:0.5 3:0.5 19:0.166667 20:0.25 21:0.25 23:0.166667 25:0.5 26:0.5 27:0.5 29:0.25 35:0.25 46:0.166667 47:0.25 48:0.25 49:0.2 54:0.5 56:0.25 76:0.25 80:0.25 91:0.666667 93:0.333333 101:0.25 105:0.25 121:0.5 122:0.25 135:0.333333 138:0.5 153:0.5 154:0.25 156:0.5 158:0.25 160:0.25 164:0.5 166:0.25 176:0.5 179:0.5 192:0.333333 200:0.5 204:0.5 207:0.5 240:0.25 251:0.5 252:0.5 270:0.333333 275:1 282:0.333333 302:0.5 375:0.5 379:0.5 380:0.333333 398:0.5 415:0.5 461:1 485:0.5 
1.009292630004623 9:0.5 19:0.666667 20:0.25 25:0.5 26:0.5 27:0.5 32:1 40:0.25 42:0.25 46:0.333333 47:0.5 48:0.5 49:0.4 71:0.25 74:1 75:1 77:0.25 94:0.5 108:0.333333 114:0.5 121:0.5 124:0.25 127:0.5 137:0.5 146:0.25 187:0.5 192:0.666667 198:0.25 199:0.5 201:0.25 208:0.5 252:0.5 258:0.333333 263:0.25 267:0.5 273:1 295:0.333333 299:0.5 320:1 321:1 325:0.5 330:0.5 332:0.5 343:0.5 363:0.5 368:0.5 370:0.5 467:0.5 
0.4313845046825718 18:0.25 19:0.333333 20:0.5 21:0.25 22:0.25 23:0.166667 24:0.333333 27:0.25 28:0.25 41:0.25 44:0.25 46:0.166667 47:0.25 48:0.25 49:0.2 53:0.5 54:0.25 55:0.2 71:0.5 72:0.666667 80:0.5 87:0.25 88:0.5 89:0.5 108:0.333333 124:0.25 125:0.25 126:0.5 127:0.5 140:0.75 151:0.5 160:0.25 179:0.5 185:0.25 192:1 204:0.5 206:0.333333 209:0.5 214:0.25 224:0.5 229:0.25 231:0.5 239:0.25 273:1 294:0.5 319:0.5 320:1 321:1 328:0.5 
0.9704206910870898 5:0.333333 7:0.25 19:0.166667 20:0.25 23:0.166667 28:0.25 32:0.5 34:0.25 36:0.5 46:0.166667 47:0.25 48:0.25 49:0.2 54:0.5 58:0.333333 71:0.5 72:0.666667 73:0.5 76:0.25 78:0.5 79:0.25 82:0.333333 83:0.25 84:0.5 85:0.75 117:0.5 118:0.333333 119:0.25 121:0.25 123:0.5 126:0.25 131:1 134:0.5 171:0.25 194:1 195:0.75 202:0.5 207:0.5 209:0.5 212:0.5 219:0.5 223:0.5 224:0.5 226:0.5 230:0.333333 232:0.666667 254:0.5 265:1 279:0.5 290:0.25 293:0.25 299:0.5 303:0.25 328:0.5 341:0.5 343:0.5 431:1 451:0.5 
0.2847682169282656 3:0.25 7:0.25 8:0.166667 22:0.5 23:0.166667 25:0.5 26:0.5 27:0.25 32:0.5 40:0.75 53:0.25 55:0.8 69:0.666667 70:0.5 80:0.25 82:0.666667 85:0.25 91:0.333333 94:0.25 95:0.333333 97:1 98:0.5 101:0.5 116:0.666667 120:0.5 121:0.25 123:0.5 126:0.25 136:0.5 139:0.5 143:0.5 147:0.5 155:0.5 168:0.25 198:0.25 227:0.5 230:0.333333 231:0.5 240:0.25 250:0.25 251:0.5 256:1 295:0.166667 302:0.5 308:0.5 329:0.5 347:0.5 352:0.5 367:0.5 486:0.5 
1.152358174006066 3:0.5 9:1 17:0.5 18:0.25 19:0.333333 20:0.75 21:0.25 22:0.25 23:0.166667 24:0.333333 27:0.25 38:0.5 39:0.333333 46:0.166667 47:0.25 48:0.25 49:0.2 50:0.666667 71:0.5 76:0.25 77:0.25 118:1 119:0.25 121:0.25 132:0.333333 135:0.666667 137:0.5 152:0.5 155:0.5 165:0.5 185:0.5 200:0.5 231:0.5 269:0.5 274:0.5 277:1 293:0.25 297:1 302:1 328:0.5 340:1 342:1 379:0.5 393:0.5 394:0.5 420:0.5 432:1 487:1 
0.8647120163121177 3:0.25 18:0.25 19:0.166667 20:0.25 21:0.25 22:0.25 23:0.333333 24:0.333333 25:0.5 26:0.5 27:0.25 31:0.25 38:0.25 46:0.166667 53:0.25 62:1 73:0.5 75:0.333333 77:0.75 87:0.25 89:0.5 121:0.25 124:0.25 127:0.25 139:0.5 165:0.5 168:0.5 185:0.25 225:0.25 256:0.5 274:0.25 290:0.25 293:0.25 296:0.5 297:0.5 330:0.5 352:1 363:1 368:0.5 381:1 404:1 423:1 424:1 434:1 
0.8274986114533621 15:0.5 18:0.5 19:0.333333 20:0.25 21:0.25 22:0.25 23:0.166667 24:0.333333 28:0.25 39:0.333333 40:0.25 41:0.25 42:0.25 44:0.25 46:0.333333 47:0.25 48:0.25 49:0.2 71:0.25 77:0.5 80:0.25 81:0.5 92:0.5 101:0.25 103:0.5 111:0.333333 116:0.333333 121:0.25 135:0.333333 138:0.5 155:0.5 172:0.25 176:0.25 188:0.25 189:0.5 192:0.333333 193:0.5 195:0.5 208:0.5 229:0.75 242:1 255:0.5 256:1 263:0.5 264:1 316:0.5 325:1 330:0.5 363:0.5 370:0.5 412:0.5 421:0.5 434:1 485:0.5 488:1 
0.3183097074219504 1:0.166667 3:0.5 8:0.166667 18:0.25 19:0.666667 20:0.25 21:0.25 22:0.25 23:0.666667 24:0.333333 25:0.5 26:0.5 38:0.5 46:0.166667 47:0.25 48:0.75 49:0.2 53:0.25 54:0.25 55:0.2 80:0.25 81:0.5 91:0.333333 94:0.25 108:0.666667 116:0.333333 127:0.25 137:0.5 148:0.333333 153:0.5 160:0.25 169:0.333333 178:0.5 194:0.5 215:1 232:0.333333 243:0.5 252:0.5 262:0.5 275:0.5 296:0.5 297:0.5 309:0.5 325:1 343:0.5 402:0.5 
0.7939356608509481 2:0.25 3:0.25 8:0.5 19:0.166667 20:0.25 23:0.333333 32:0.5 34:0.25 35:0.25 38:0.25 39:0.666667 43:0.25 46:0.166667 47:0.25 48:0.25 49:0.2 51:0.5 54:0.25 66:1 81:0.5 85:0.25 89:0.5 91:0.333333 92:0.25 94:0.5 102:0.5 104:0.5 113:0.25 114:0.5 131:0.5 140:0.5 154:0.25 168:0.25 176:0.25 193:0.5 201:0.25 232:0.333333 236:0.5 251:0.5 254:0.5 255:0.5 277:0.5 294:0.5 297:0.5 306:0.25 332:0.5 334:0.5 348:0.5 349:0.5 350:0.5 351:0.25 370:0.5 379:0.5 383:1 396:1 397:1 
1.223295753851368 12:0.5 18:0.5 19:0.333333 20:0.5 21:0.5 22:0.5 23:0.333333 24:0.666667 25:0.5 26:0.5 27:0.25 40:0.25 66:0.5 68:0.5 70:0.25 76:0.25 77:0.25 80:0.25 101:0.25 104:0.5 116:0.333333 121:0.25 143:0.5 175:0.333333 195:0.25 221:1 231:0.5 243:0.5 256:1 260:1 261:1 262:1 263:0.25 269:0.5 272:0.5 290:0.5 292:1 297:0.5 299:1 302:0.5 318:0.5 332:0.5 344:0.5 345:0.5 389:1 390:1 399:1 402:0.5 461:1 
1.16430486447398 19:0.166667 29:0.25 34:0.25 45:0.5 46:0.166667 54:0.25 74:0.5 75:0.333333 80:0.25 81:1 87:0.25 89:0.5 99:1 111:0.333333 121:0.25 125:0.25 127:0.5 146:0.25 154:0.5 176:0.25 184:0.5 185:0.25 186:0.5 187:0.5 192:0.666667 193:0.5 201:0.5 212:0.25 236:1 242:1 243:1 244:0.5 252:0.5 256:1 265:1 273:1 294:0.5 320:1 321:1 332:0.5 350:1 351:0.5 425:0.5 483:1 489:1 
0.9063271291639415 8:0.166667 18:0.25 19:0.5 20:0.25 21:0.25 22:0.25 23:0.333333 24:0.333333 29:0.25 38:0.25 40:0.25 45:1 46:0.166667 47:0.25 48:0.5 49:0.2 54:0.5 71:0.5 72:0.666667 79:0.25 85:0.5 91:0.666667 92:0.25 95:0.666667 102:0.5 106:0.5 108:0.333333 121:0.5 125:0.25 134:0.5 140:0.25 146:0.75 154:0.25 158:0.25 160:0.25 177:1 205:0.333333 206:0.333333 214:0.5 215:0.5 239:0.25 256:1 264:0.5 269:0.5 325:0.5 332:0.5 379:0.5 399:0.5 412:1 425:0.5 437:0.5 490:0.5 
0.5879780852100044 1:0.333333 5:0.333333 8:0.166667 11:0.5 12:0.5 19:0.166667 27:0.25 34:0.25 40:0.25 43:0.5 44:0.25 46:0.166667 47:0.25 48:0.25 49:0.2 71:0.5 72:0.666667 77:0.25 80:0.5 91:0.333333 95:0.333333 101:0.25 102:0.5 108:0.333333 116:0.333333 121:0.25 126:0.25 136:0.5 152:0.5 159:1 171:0.25 176:0.25 179:0.5 184:1 194:0.5 195:0.25 206:0.333333 223:1 225:0.25 229:0.25 240:0.25 251:0.5 254:0.5 262:0.5 264:0.5 274:0.25 283:0.5 290:0.25 294:1 303:0.25 306:0.5 376:0.5 390:0.5 446:0.5 477:0.5 491:0.5 
0.6951162205719349 5:0.333333 17:0.5 18:0.25 22:0.25 23:0.333333 26:0.25 42:0.25 54:0.25 55:0.2 69:0.333333 70:0.25 71:0.5 72:0.666667 75:0.333333 76:0.25 86:0.5 89:0.5 91:0.333333 94:0.25 98:0.25 109:0.5 111:0.333333 122:0.25 123:0.5 127:0.25 134:0.5 138:0.5 154:0.5 155:0.5 160:0.5 162:0.5 184:0.5 187:0.5 198:0.25 200:0.5 202:0.5 205:0.666667 206:0.666667 208:0.5 212:0.25 214:0.25 216:0.5 217:0.5 250:0.25 261:1 299:0.5 306:1 312:0.5 313:1 338:0.5 370:1 395:0.5 
0.3517920320430555 7:0.5 19:0.333333 28:0.25 33:0.25 34:0.25 42:0.25 44:0.25 45:0.5 46:0.333333 47:0.5 48:0.5 49:0.4 54:0.25 63:0.25 67:0.5 70:0.25 71:0.5 72:0.666667 73:0.5 77:0.25 80:0.25 84:0.5 85:0.25 86:0.25 92:0.25 94:0.5 108:0.333333 113:0.25 132:0.333333 145:1 146:0.5 148:0.666667 166:0.5 176:0.25 188:0.25 190:0.5 191:0.25 196:0.666667 208:0.5 237:1 239:0.25 244:0.5 248:0.5 256:0.5 261:0.5 263:0.25 277:0.5 279:0.5 280:0.5 282:0.333333 283:0.5 297:0.5 302:0.5 320:0.5 331:0.5 380:0.333333 
0.9765357493302398 5:0.333333 9:1 19:0.333333 22:0.25 23:0.333333 27:0.25 31:0.25 42:0.25 45:0.5 46:0.166667 47:0.25 49:0.2 55:0.6 69:0.333333 70:0.5 71:0.5 72:0.666667 77:0.5 80:0.25 81:0.5 86:0.5 89:0.5 95:1 98:0.25 101:0.25 104:0.5 107:0.5 116:0.666667 135:0.333333 154:0.25 164:1 171:0.5 173:0.5 176:0.25 186:0.5 197:1 201:0.25 225:0.5 231:0.5 236:0.5 257:0.5 261:0.5 268:0.5 274:0.25 276:0.5 293:0.25 302:0.5 307:0.5 324:0.5 346:0.5 350:0.5 351:0.25 382:1 420:0.5 425:0.5 
0.6658032306884519 8:0.166667 12:0.5 15:0.5 19:0.333333 28:0.25 30:0.25 31:0.25 34:0.25 35:0.75 40:0.75 43:0.25 44:0.25 46:0.333333 47:0.5 48:0.5 49:0.4 55:0.4 63:0.25 71:0.5 72:0.666667 73:0.5 78:0.5 81:0.5 82:0.666667 86:0.25 89:0.5 97:1 98:0.5 119:0.25 124:0.25 134:0.5 176:0.25 183:0.5 186:0.5 195:0.25 206:0.333333 212:0.75 214:0.25 223:0.5 226:0.5 229:0.25 230:0.333333 232:0.333333 233:0.5 264:0.5 273:0.5 306:0.25 330:0.5 336:0.5 337:0.5 412:0.5 418:0.5 
0.4444909635594803 1:0.333333 6:0.5 7:0.25 9:0.5 14:0.5 18:0.25 19:0.5 20:0.25 21:0.25 22:0.5 23:0.5 24:0.333333 25:0.5 26:0.5 27:0.25 30:0.25 38:0.25 44:0.25 48:0.5 55:0.2 69:0.333333 70:0.25 82:0.333333 84:0.5 95:0.333333 110:0.5 121:0.25 122:0.25 138:1 140:0.5 159:0.5 180:0.5 187:0.5 195:0.25 198:0.25 206:0.333333 208:0.5 214:0.25 215:1 220:0.5 221:0.5 222:0.5 246:0.5 255:0.5 268:0.5 276:0.5 293:0.5 294:0.5 295:0.166667 302:0.5 307:0.5 308:0.5 320:0.5 325:0.5 359:0.5 360:0.5 435:0.5 
0.1077318784875317 20:0.25 22:0.25 38:0.5 40:0.5 42:0.25 48:0.25 54:0.25 55:0.6 69:0.333333 70:0.25 77:0.25 80:0.5 82:0.666667 84:0.5 85:0.25 86:0.25 89:0.5 91:0.333333 94:0.25 95:0.333333 96:0.5 97:1 98:0.5 101:0.25 104:0.5 106:0.5 121:0.25 125:0.25 132:0.333333 133:0.5 137:0.5 138:1 158:0.75 159:0.5 173:0.5 183:0.25 184:0.5 188:0.25 193:0.5 230:0.333333 242:1 254:0.5 256:0.5 277:0.5 278:1 306:0.25 332:0.5 377:0.5 
0.333807711261371 8:0.166667 18:0.25 19:0.166667 20:0.5 21:0.25 22:0.5 23:0.166667 24:0.333333 25:0.5 26:0.5 30:0.25 35:0.5 38:0.25 39:0.333333 46:0.166667 55:0.2 60:0.5 66:0.5 67:0.5 68:0.5 69:0.333333 70:0.25 101:0.5 102:0.5 126:0.25 127:0.5 128:0.5 134:1 154:0.25 160:0.25 165:0.5 191:0.25 192:1 205:0.333333 206:0.333333 212:0.25 230:0.333333 231:0.5 273:1 320:1 321:1 328:0.5 352:0.5 354:0.5 367:0.5 375:0.5 399:0.5 
0.6383578707681405 7:0.25 18:0.25 19:0.5 20:0.25 21:0.25 22:0.5 23:0.333333 24:0.333333 38:0.5 46:0.166667 47:0.25 48:0.25 49:0.4 52:1 53:0.5 55:0.6 64:0.5 70:0.25 71:0.25 91:0.333333 92:0.25 98:0.25 102:1 104:0.5 108:0.333333 119:0.25 135:0.333333 138:0.5 140:0.25 144:1 166:0.25 168:0.25 172:0.25 189:1 191:0.25 193:0.5 195:0.25 196:0.333333 213:0.5 242:1 250:0.5 255:0.5 261:0.5 263:0.25 268:0.5 274:0.25 276:0.5 290:0.5 293:0.25 306:0.25 307:0.5 319:0.5 334:1 363:0.5 393:0.5 427:0.5 464:1 495:1 
0.4574133602951321 1:0.333333 6:0.5 12:0.5 18:0.5 19:0.5 20:0.25 21:0.25 22:0.25 23:0.166667 24:0.333333 28:0.25 35:0.75 42:0.25 44:0.25 47:0.25 48:0.25 71:0.5 72:0.666667 77:0.25 90:0.5 91:0.333333 92:0.25 95:0.333333 96:0.5 114:0.5 116:0.333333 119:0.25 121:0.25 122:0.25 125:0.25 149:0.5 158:0.25 159:0.5 168:0.25 183:0.25 184:0.5 185:0.25 189:0.5 192:1 193:0.25 202:0.5 206:0.333333 269:0.5 273:1 279:0.5 280:0.5 306:0.25 325:0.5 328:0.5 341:0.5 353:0.5 368:0.5 374:0.5 384:0.5 415:0.5 420:0.5 425:0.5 432:1 475:0.5 
0.1223022915583074 1:0.333333 19:0.166667 23:0.166667 38:0.5 39:1 40:0.25 46:0.333333 47:0.25 48:0.25 49:0.2 71:0.25 77:0.25 80:0.25 132:0.333333 135:0.333333 148:0.333333 154:0.5 160:0.5 193:0.5 199:0.5 200:1 242:1 282:0.666667 354:1 480:0.5 481:0.5 
0.5745910214385049 3:0.25 19:0.333333 20:0.5 22:0.25 23:0.166667 25:0.5 26:0.5 27:0.5 32:0.5 38:0.25 46:0.166667 47:0.25 48:0.25 49:0.2 55:0.4 66:0.5 68:0.5 69:0.333333 70:0.25 74:0.5 75:0.333333 98:0.25 108:0.333333 113:0.25 121:0.5 123:0.5 124:0.5 131:0.5 136:0.5 168:0.25 195:0.25 231:0.5 232:0.333333 243:1 250:0.25 255:0.5 260:0.5 261:0.5 277:0.5 281:0.333333 290:0.5 297:1 299:1 307:1 363:0.5 371:1 372:1 451:1 
0.8541700149532147 1:0.166667 3:0.5 5:0.666667 7:0.75 25:0.25 40:0.5 44:0.25 61:1 63:0.5 83:0.25 145:0.333333 146:0.25 147:1 148:1 158:0.5 159:1 160:0.25 166:0.5 181:0.5 183:0.5 184:1 192:0.333333 193:0.5 196:0.333333 201:0.5 214:0.5 227:1 232:0.333333 237:0.5 242:1 260:0.5 273:0.5 498:1 499:1 500:1 
0.4343167078575002 1:0.166667 18:0.25 19:0.333333 20:0.25 21:0.25 22:0.25 23:0.166667 24:0.333333 28:0.25 29:0.25 35:0.25 36:0.5 38:0.25 39:0.333333 44:0.25 50:0.333333 51:0.25 52:0.5 53:0.5 54:0.25 55:0.2 70:0.25 71:0.5 72:0.666667 81:0.5 86:0.5 88:0.5 90:0.25 91:0.333333 95:0.333333 121:0.25 140:0.5 153:0.5 154:1 160:0.5 169:0.333333 173:0.5 185:0.25 200:0.5 201:0.5 202:0.5 205:0.666667 206:0.666667 223:0.5 236:0.5 244:0.5 262:0.5 267:0.5 302:0.5 306:0.25 308:0.5 318:0.5 320:1 329:0.5 350:0.5 351:0.25 354:0.5 420:0.5 
1.235690812205071 5:0.333333 19:0.333333 25:0.25 26:0.5 27:0.25 40:0.25 44:0.75 46:0.333333 47:0.5 48:0.5 49:0.4 50:0.666667 51:0.5 52:1 53:0.5 54:0.5 55:0.6 74:0.5 77:1 80:0.25 90:0.25 91:0.666667 101:0.25 105:0.25 116:1 121:0.25 123:0.5 130:1 132:0.666667 136:0.5 138:0.5 140:0.25 146:0.25 147:1 167:0.5 173:0.5 193:0.75 208:0.5 212:0.5 214:0.25 239:0.25 242:0.5 243:0.5 245:0.333333 254:0.5 258:0.333333 268:0.5 270:0.333333 275:0.5 276:0.5 282:0.333333 301:0.333333 329:0.5 368:1 390:0.5 443:1 501:1 
0.4316776762425248 5:0.333333 10:0.5 12:0.5 19:0.333333 23:0.5 28:0.25 39:0.333333 40:0.5 42:0.25 46:0.166667 47:0.25 48:0.5 49:0.2 55:0.4 71:0.5 72:0.666667 91:0.333333 92:0.5 101:0.5 103:0.5 106:0.5 107:0.5 108:0.333333 109:0.5 121:0.25 122:0.25 138:0.5 147:0.5 162:0.5 168:0.75 179:0.5 184:0.5 195:0.25 209:0.5 215:0.5 224:1 230:0.333333 241:0.5 270:0.333333 274:0.25 284:1 285:0.333333 290:0.25 299:0.5 312:0.5 313:0.5 354:0.5 389:0.5 434:1 502:0.5 
0.257100384137446 2:0.25 3:0.5 22:0.5 23:0.166667 27:0.25 29:0.25 35:0.5 38:0.25 39:0.666667 44:0.5 48:0.25 53:0.5 54:0.5 55:0.4 60:0.5 63:0.25 66:0.5 69:0.666667 70:0.5 78:0.5 79:0.25 86:0.25 92:0.25 93:0.333333 98:0.25 101:0.25 102:0.5 106:0.5 108:0.333333 120:0.5 121:0.25 122:0.25 128:0.5 131:0.5 134:0.5 138:0.5 149:0.5 168:0.25 169:0.666667 170:1 171:0.25 193:0.5 195:0.25 198:0.25 224:0.5 232:0.333333 242:1 250:0.25 290:0.25 299:0.5 320:0.5 343:0.5 366:0.5 370:0.5 380:0.333333 414:0.5 418:0.5 451:0.5 
1.283325332958737 3:1 11:0.5 18:0.25 19:0.333333 20:0.25 21:0.25 22:0.25 23:0.5 24:0.333333 30:0.25 33:0.5 35:0.5 38:0.5 39:0.666667 44:0.5 46:0.166667 47:0.25 48:0.25 49:0.2 53:1 54:0.5 66:0.5 71:0.5 72:0.666667 80:0.25 86:0.25 87:0.25 88:0.5 91:1 92:0.25 94:0.25 95:0.333333 101:0.25 102:0.5 103:0.5 111:0.333333 121:0.25 122:0.25 127:0.5 135:0.333333 160:0.25 169:1 170:1 171:0.25 207:0.5 220:0.5 227:0.5 255:0.5 270:0.333333 281:0.333333 296:1 297:1 309:0.5 320:0.5 398:0.5 406:1 413:0.5 414:0.5 437:0.5 438:0.5 
0.3155380445582592 5:0.666667 19:0.166667 30:0.25 34:0.25 46:0.166667 47:0.25 48:0.25 49:0.6 53:0.5 80:0.25 94:0.5 105:0.25 106:0.5 111:0.666667 116:0.333333 121:0.25 145:0.666667 154:0.5 160:0.5 193:0.5 195:0.5 199:0.5 205:0.666667 206:0.666667 242:1 255:0.5 267:0.5 277:0.5 282:0.333333 306:0.25 370:0.5 437:1 478:1 
0.4668914044721263 1:0.166667 7:0.25 19:0.166667 20:0.25 23:0.166667 25:0.5 26:0.5 44:0.75 46:0.166667 47:0.25 48:0.25 49:0.2 50:0.666667 51:0.5 52:1 53:0.5 54:0.5 55:0.4 70:0.25 73:1 79:0.25 80:0.25 81:1 87:0.5 98:0.25 154:0.25 192:0.333333 200:1 201:0.5 232:0.666667 236:0.5 240:0.25 258:0.333333 261:0.5 301:0.333333 350:0.5 351:0.25 371:1 372:1 505:1 
0.676445408303421 7:0.25 19:0.333333 24:0.666667 27:0.25 31:0.25 40:0.25 41:0.25 44:0.25 46:0.333333 47:0.5 48:0.5 49:0.4 55:0.4 70:0.5 77:0.5 79:0.5 80:0.75 89:0.5 101:0.25 105:0.25 111:1 121:0.25 122:0.25 123:0.5 127:0.25 147:1 155:1 187:0.5 192:0.333333 193:0.5 195:0.5 212:0.25 224:0.5 230:1 242:1 261:1 263:0.25 275:0.5 280:0.5 282:0.666667 295:0.166667 307:0.5 325:0.5 341:1 482:1 
0.5852199057723777 22:0.25 25:0.5 26:0.5 29:0.5 31:0.25 32:0.5 40:0.5 44:0.25 49:0.2 54:0.25 55:0.6 65:1 69:0.666667 70:0.25 81:0.5 82:0.666667 97:1 98:0.5 101:0.5 104:0.5 123:0.5 124:0.25 126:0.25 127:0.5 142:0.5 146:0.25 154:0.25 156:0.5 166:0.25 174:0.5 188:0.25 191:0.25 192:0.666667 196:0.666667 201:0.25 213:0.5 236:0.5 253:0.5 254:0.5 273:1 295:0.666667 302:0.5 303:0.25 306:0.25 320:1 321:1 342:0.5 350:0.5 351:0.25 379:0.5 425:0.5 461:1 467:0.5 
1.721881917928227 5:0.666667 10:1 81:1 87:0.25 89:0.5 91:0.666667 92:0.25 108:0.333333 137:0.5 145:0.666667 147:1 148:0.666667 154:1 160:1 164:1 172:0.25 193:0.5 195:0.5 196:0.666667 201:0.5 205:0.666667 206:0.666667 229:0.5 236:1 242:1 263:0.25 266:1 280:0.5 303:0.25 328:0.5 350:1 351:0.5 399:1 457:1 458:1 
1.12059560245092 3:0.5 19:0.166667 20:0.5 27:0.25 28:0.75 46:0.333333 47:0.25 48:0.5 49:0.2 51:0.5 53:0.25 54:0.5 71:0.25 75:0.333333 76:0.25 77:0.25 86:0.25 89:0.5 90:0.25 111:0.333333 114:0.5 140:0.75 154:0.75 160:0.75 164:0.5 171:0.25 176:0.25 179:0.5 193:0.5 202:0.5 205:1 206:1 207:0.5 212:0.25 225:0.25 230:0.333333 242:1 251:1 253:0.5 269:0.5 275:0.5 280:0.5 299:0.5 313:1 325:0.5 338:1 
4.744449506292775 20:0.25 25:0.5 26:0.75 38:0.25 42:0.5 46:0.166667 79:0.5 141:0.5 149:0.5 158:0.25 164:0.5 228:1 299:0.5 378:1 380:0.666667 437:0.5 
0.3349919693514781 1:0.5 2:0.5 3:0.5 7:0.5 23:0.166667 38:0.25 50:0.333333 56:0.25 66:0.5 76:0.5 80:0.5 81:1 110:0.5 115:0.5 127:0.25 131:0.5 164:1 172:0.5 179:1 195:0.25 207:1 219:0.5 290:0.5 397:1 464:0.5 514:0.5 
128 1:0.5 2:0.5 3:0.5 7:0.5 23:0.166667 38:0.25 50:0.333333 56:0.25 66:0.5 76:0.5 80:0.5 81:1 110:0.5 115:0.5 127:0.25 131:0.5 164:1 172:0.5 179:1 195:0.25 207:1 219:0.5 290:0.5 397:1 464:0.5 514:0.5 
1.166800870824535 23:0.333333 33:1 42:1 43:0.5 50:0.666667 66:1 71:0.25 72:0.333333 86:0.5 95:0.666667 101:0.75 104:1 127:0.5 129:1 136:1 143:0.5 168:0.25 184:1 190:0.5 192:0.666667 193:0.5 196:0.666667 215:1 228:1 268:1 273:1 295:0.166667 299:1 303:0.5 316:1 319:1 320:1 321:1 328:1 378:1 380:0.666667 536:1 537:1 538:1 
0.1101924428672284 18:0.25 19:0.166667 20:0.25 21:0.25 22:0.25 23:0.166667 24:0.666667 35:0.25 36:0.5 44:0.5 50:0.666667 51:0.5 52:1 53:0.75 54:0.5 55:0.4 58:0.333333 63:0.25 70:0.25 71:0.5 72:0.666667 81:0.5 90:0.25 91:0.333333 121:0.25 140:0.5 154:0.75 160:0.5 185:0.25 195:0.25 201:0.25 205:0.666667 206:0.666667 213:0.5 223:0.5 236:0.5 244:0.5 262:0.5 302:0.5 308:0.5 318:0.5 320:0.5 329:0.5 341:0.5 350:0.5 351:0.25 420:0.5 
0.8972647869268147 7:0.75 19:0.666667 23:0.166667 25:0.5 26:0.5 27:0.25 29:0.25 30:0.25 44:0.5 46:0.333333 47:0.5 48:0.75 49:0.4 54:0.5 58:0.666667 70:0.5 80:0.25 85:0.25 122:0.25 126:0.25 127:0.5 134:0.5 142:0.5 146:0.5 154:0.5 172:0.5 176:0.5 195:0.25 209:1 213:1 214:0.5 215:1 228:0.5 282:0.666667 289:1 300:1 318:0.5 319:1 347:0.5 
128 2:0.5 12:1 22:0.5 23:0.333333 24:0.666667 25:0.5 26:0.5 38:0.5 46:0.333333 48:0.5 55:0.4 56:0.5 62:1 69:0.666667 70:0.5 77:0.5 80:0.5 105:0.5 124:0.5 126:1 137:1 147:1 155:1 160:0.5 175:0.666667 184:1 195:0.5 212:0.75 230:0.333333 239:0.5 282:0.666667 294:0.5 300:1 309:1 341:1 383:1 412:1 466:1 
25.84582297968237 2:0.5 12:1 22:0.5 23:0.333333 24:0.666667 25:0.5 26:0.5 38:0.5 46:0.333333 48:0.5 55:0.4 56:0.5 62:1 69:0.666667 70:0.5 77:0.5 80:0.5 105:0.5 124:0.5 126:1 137:1 140:0.25 147:1 155:1 160:0.5 175:0.666667 184:1 195:0.5 212:0.5 230:0.333333 239:0.5 282:0.666667 300:1 309:1 341:1 383:1 412:1 466:1 
0.5660498342973415 2:0.25 7:0.25 8:0.166667 12:0.5 22:0.5 23:0.333333 24:0.666667 25:0.5 26:0.5 38:0.25 46:0.333333 48:0.5 55:0.4 56:0.5 62:0.5 69:0.666667 70:0.5 77:0.5 80:0.5 105:0.5 117:0.5 118:0.333333 124:0.5 126:1 137:1 140:0.25 145:0.333333 147:0.5 155:1 160:0.5 175:0.666667 184:1 195:0.25 212:0.5 230:0.666667 239:0.5 282:0.666667 300:1 309:1 341:1 383:1 412:1 466:1 
0.09442220987246211 1:0.5 5:0.666667 18:0.25 19:0.333333 20:0.5 21:0.25 22:0.25 23:0.166667 24:0.333333 40:1 46:0.166667 47:0.25 48:0.25 49:0.2 51:0.5 55:0.4 56:0.25 82:0.666667 91:0.333333 94:0.25 97:1 98:0.5 101:0.25 108:0.666667 119:0.25 181:0.5 208:0.5 213:0.5 214:0.5 223:0.5 227:1 230:0.333333 232:0.666667 259:0.5 263:0.25 286:0.5 300:0.5 331:0.5 343:0.5 363:0.5 376:0.5 390:0.5 441:0.5 
15.89618077169546 1:0.166667 19:0.333333 28:0.5 35:0.25 38:0.25 45:1 46:0.666667 47:0.5 48:0.5 49:0.4 50:0.333333 54:0.25 80:0.5 81:1 93:0.666667 101:0.5 102:1 110:1 116:0.666667 121:0.5 126:0.5 149:0.5 154:0.25 155:1 159:1 160:0.25 174:1 195:0.5 200:0.5 236:1 250:0.5 262:0.5 274:0.5 302:1 303:1 309:1 398:1 464:1 
0.2555917590586093 9:0.5 18:0.25 19:0.5 20:0.25 21:0.25 22:0.5 23:0.166667 24:0.333333 25:0.5 26:0.5 35:0.5 38:0.5 54:0.5 55:0.2 66:0.5 69:0.333333 70:0.25 71:0.25 74:1 75:0.666667 76:0.25 77:0.25 80:0.25 84:0.5 90:0.5 92:0.5 113:0.25 114:0.5 115:0.5 127:0.25 133:0.5 145:0.333333 146:0.25 154:0.25 175:0.333333 180:0.5 191:0.25 204:1 220:1 225:0.25 245:0.333333 249:0.5 250:0.25 270:0.333333 294:0.5 315:1 316:0.5 
41.35392506637609 7:0.5 8:0.666667 19:0.333333 40:0.5 46:0.333333 47:0.5 48:0.5 49:0.4 54:0.5 55:0.4 71:0.5 72:0.666667 82:0.666667 91:0.666667 95:0.333333 97:0.5 98:0.25 117:1 118:0.666667 121:0.5 145:0.666667 173:1 174:1 175:0.666667 176:0.5 240:0.5 254:1 263:0.5 277:1 307:1 343:1 367:1 539:1 
7.041108342511088 19:0.333333 32:1 46:0.166667 47:0.5 48:0.5 49:0.4 55:0.4 71:0.5 72:0.666667 77:0.25 91:0.666667 92:0.5 93:0.666667 96:0.5 97:1 98:0.25 121:0.5 125:0.5 132:0.333333 164:1 174:1 207:1 279:1 283:1 290:0.5 295:0.333333 306:0.5 318:1 337:1 368:0.5 464:1 540:1 541:1 542:1 543:1 544:1 545:1 
2.313037133758273 22:0.5 23:0.333333 25:0.25 26:0.25 29:0.5 55:0.4 68:1 69:0.666667 70:0.5 71:0.5 84:1 85:0.5 101:0.5 105:0.25 111:0.333333 113:0.5 116:0.666667 119:0.5 123:0.5 126:0.25 135:0.333333 189:0.5 279:0.5 294:0.5 319:1 344:1 370:0.5 
0.6393660844322933 1:0.333333 2:0.5 7:0.25 19:0.166667 23:0.166667 25:0.5 29:0.25 35:0.5 40:0.25 41:0.25 42:0.5 43:0.5 46:0.166667 47:0.25 48:0.25 49:0.2 58:0.333333 63:0.25 64:0.5 75:0.333333 77:0.5 80:0.25 81:1 83:0.25 95:0.333333 106:0.5 111:0.333333 121:0.25 131:0.5 132:0.666667 136:0.5 154:0.25 158:0.25 159:1 168:0.25 193:0.5 201:0.25 236:0.5 242:1 268:1 269:0.5 272:1 274:0.25 277:0.5 295:0.166667 308:0.5 350:0.5 351:0.25 366:0.5 374:0.5 387:0.333333 391:0.5 410:1 
2.213788408022245 7:0.25 8:0.333333 9:1 22:0.25 23:0.166667 24:0.333333 34:0.5 55:0.2 69:0.333333 70:0.25 71:0.5 72:0.666667 74:1 78:0.5 94:0.5 95:0.666667 101:0.5 111:0.666667 118:0.333333 146:0.25 172:0.5 188:0.5 195:0.5 216:0.5 247:1 253:1 256:1 274:0.25 328:1 358:0.5 376:1 390:1 425:1 469:1 470:1 
8.376358330295663 18:0.5 19:0.333333 20:0.5 21:0.5 22:0.5 23:0.333333 24:0.666667 31:1 38:0.5 46:0.333333 71:0.25 72:0.333333 77:0.5 79:0.5 87:0.5 95:0.666667 123:1 137:1 158:0.5 212:0.5 215:1 220:1 245:0.666667 246:1 260:1 261:1 293:0.5 294:1 334:1 359:0.5 413:1 414:1 463:1 498:1 
32.08208380682558 3:0.25 8:0.333333 12:1 36:0.5 38:0.5 51:0.5 53:0.25 55:0.2 77:0.5 80:0.25 82:0.666667 83:0.5 84:1 85:0.5 88:1 89:1 96:1 105:0.5 107:1 113:0.5 114:1 126:0.5 136:1 147:1 192:0.333333 243:0.5 253:1 290:0.25 329:1 334:0.5 341:1 349:1 427:1 546:1 
41.42728783788101 7:0.5 8:0.666667 19:0.333333 40:0.25 46:0.333333 47:0.5 48:0.5 49:0.4 54:0.5 55:0.2 63:0.25 71:0.5 72:0.666667 82:0.666667 91:0.666667 95:0.333333 97:0.5 98:0.5 117:1 118:0.666667 121:0.5 145:0.666667 173:1 174:1 175:0.666667 176:0.5 240:0.5 254:1 263:0.5 277:1 278:1 307:1 343:1 367:1 407:0.5 
0.7701815680645518 7:0.5 8:0.666667 19:0.333333 40:0.25 46:0.333333 47:0.5 48:0.5 49:0.4 54:0.5 55:0.4 71:0.5 72:0.666667 82:0.666667 91:0.666667 95:0.333333 97:0.5 98:0.5 117:1 118:0.666667 121:0.5 145:0.666667 148:0.333333 173:1 174:1 175:0.666667 176:0.5 240:0.5 254:1 263:0.5 277:1 307:1 343:1 367:1 419:1 547:1 
12.64303782071718 18:0.5 19:0.333333 20:0.5 21:0.5 22:0.5 23:0.333333 24:0.666667 31:0.5 38:0.5 46:0.333333 71:0.5 72:0.666667 77:0.5 79:0.5 87:0.25 95:0.333333 123:0.5 158:0.5 208:0.5 212:0.5 215:1 220:1 246:1 260:1 261:1 276:0.5 293:0.5 294:0.5 334:1 359:1 413:1 414:1 463:1 498:1 
0.6267195178349647 5:0.666667 8:0.333333 18:0.5 19:0.333333 20:0.5 21:1 22:0.5 23:0.333333 24:0.666667 33:0.25 38:0.5 51:0.5 62:1 70:0.5 77:0.5 86:0.25 102:1 111:0.333333 130:1 146:0.5 147:1 163:1 168:0.25 171:0.5 212:0.5 214:0.5 223:0.5 243:0.5 270:0.333333 293:0.5 343:0.5 428:1 451:1 
0.8043308625678046 5:0.666667 8:0.333333 18:0.5 19:0.333333 20:0.5 21:1 22:0.5 23:0.333333 24:0.666667 34:0.25 38:0.5 51:0.5 62:1 70:0.5 77:0.5 91:0.333333 92:0.25 102:1 121:0.25 130:1 146:0.5 147:1 163:1 175:0.333333 176:0.25 212:0.5 214:0.5 254:0.5 268:0.5 293:0.5 379:0.5 425:0.5 428:1 451:1 
128 7:0.5 8:0.333333 9:1 22:0.25 24:0.333333 34:0.5 55:0.2 69:0.333333 70:0.25 71:0.5 72:0.666667 74:1 78:1 94:0.5 95:0.666667 101:0.5 111:0.666667 117:0.5 118:0.666667 172:0.5 188:0.5 195:0.75 216:0.5 247:1 253:1 256:1 274:0.25 328:1 358:0.5 376:1 390:1 425:1 469:1 
127.715405287625 23:0.333333 33:1 42:1 43:0.5 50:0.666667 66:1 71:0.25 72:0.333333 86:0.5 95:0.666667 101:0.75 104:1 127:0.5 129:1 136:1 143:0.5 168:0.25 184:1 190:0.5 192:0.666667 193:0.5 196:0.666667 215:1 228:1 268:1 273:1 299:1 303:0.5 316:1 319:1 320:1 321:1 328:1 378:1 380:0.666667 536:1 537:1 538:1 
1.635591769840115 1:0.333333 3:0.5 7:0.5 22:0.5 39:0.666667 55:0.2 56:0.5 63:0.5 69:0.333333 70:0.5 90:0.5 95:0.666667 107:1 111:0.666667 116:0.666667 121:0.5 160:0.5 168:1 171:0.5 172:0.5 177:0.666667 193:0.5 195:0.5 198:0.5 199:1 200:1 231:1 239:1 242:1 301:0.666667 309:1 415:1 528:1 549:1 550:1 
9.077193623285799 3:0.5 5:0.666667 6:1 23:0.333333 30:0.5 34:0.5 45:0.5 63:0.5 78:1 80:0.5 82:0.666667 83:0.25 84:0.5 85:0.5 87:0.5 101:0.5 124:0.5 126:0.5 134:1 139:1 140:0.5 177:0.666667 195:0.5 262:1 274:0.5 277:1 290:0.5 299:1 307:1 322:1 366:1 399:1 451:1 
128 8:0.333333 10:1 22:0.5 38:0.5 55:0.4 69:0.666667 70:0.5 71:0.5 72:0.666667 79:0.5 115:1 127:0.5 154:0.25 174:1 185:0.5 205:0.666667 206:0.666667 232:0.333333 297:1 351:0.5 364:1 417:1 
0.4703302554458617 1:0.166667 3:0.5 19:0.333333 26:0.5 36:1 37:0.5 38:0.5 46:0.166667 47:0.25 48:0.5 49:0.4 66:1 67:1 74:1 75:0.666667 91:0.666667 146:0.5 158:0.5 183:0.5 214:0.5 320:1 452:1 486:1 
8.333275224237516 7:0.5 19:0.333333 24:0.666667 52:1 53:0.5 96:1 101:0.5 102:1 127:0.5 144:1 154:0.5 158:0.5 159:1 176:0.5 183:0.5 184:1 188:0.25 195:0.5 320:1 353:1 354:1 359:1 441:1 
33.35927649146064 7:0.5 19:0.333333 24:0.666667 52:1 53:0.5 96:1 101:0.5 102:1 127:0.5 144:1 154:0.5 158:0.5 159:1 160:0.25 176:0.5 183:0.5 184:1 195:0.5 320:1 353:1 354:1 359:1 441:0.5 479:0.5 
14.87469578912663 7:0.5 19:0.333333 24:0.666667 52:1 53:0.5 96:1 101:0.5 102:1 127:0.5 144:1 154:0.25 158:0.5 159:1 160:0.25 183:0.5 184:1 188:0.5 195:0.5 232:0.333333 320:1 353:1 354:1 359:0.5 479:1 
1.150069131669875 43:0.5 55:0.4 66:1 70:0.25 81:1 119:0.5 151:1 154:0.5 195:0.5 201:0.5 210:0.5 236:1 251:1 257:0.5 274:0.5 319:1 350:1 351:0.5 392:1 407:1 463:1 551:1 552:1 
128 5:0.666667 25:0.5 26:0.5 40:0.5 102:1 105:0.5 125:0.5 126:0.5 146:0.25 154:0.25 160:0.25 184:1 188:0.5 205:0.666667 206:0.333333 243:1 263:0.5 267:1 270:0.666667 283:1 332:1 453:1 
0.5635134646924934 5:0.666667 25:0.5 26:0.5 40:0.5 102:1 105:0.5 125:0.5 126:0.5 146:0.25 184:1 188:0.5 205:0.666667 206:0.333333 232:0.333333 243:1 263:0.5 267:1 270:0.666667 283:1 332:1 453:1 
1.974962205414366 1:0.333333 3:0.5 5:0.666667 19:0.333333 25:0.5 26:0.5 43:0.5 46:0.333333 47:0.5 48:0.5 49:0.4 63:0.25 75:0.666667 90:0.5 157:1 158:0.5 159:1 184:1 229:0.25 337:0.5 418:1 475:1 
128 40:0.5 50:0.666667 77:1 78:1 81:1 86:0.5 94:0.5 130:1 131:1 132:0.666667 134:1 135:1 175:0.666667 206:0.666667 209:1 214:0.5 232:0.666667 251:1 256:0.5 280:1 328:1 379:1 
12.57587654062024 1:0.333333 2:0.5 25:0.5 31:0.5 43:0.5 71:0.5 72:0.333333 91:0.666667 105:1 106:1 121:0.5 123:1 126:0.5 132:0.666667 159:1 168:0.5 176:0.5 207:1 313:1 379:1 
128 10:1 17:1 18:0.5 19:0.333333 20:0.5 21:0.5 22:0.5 23:0.333333 24:0.666667 38:0.5 41:0.5 48:0.25 54:0.5 86:0.5 91:0.666667 98:0.5 108:0.666667 138:1 141:1 158:0.5 164:1 172:0.5 251:1 261:1 273:0.5 280:1 291:1 295:0.333333 296:1 306:0.5 307:1 308:1 
128 5:0.666667 25:0.5 26:0.5 40:0.5 102:1 105:0.5 125:0.5 126:0.5 154:0.25 160:0.25 184:1 188:0.5 205:0.666667 206:0.666667 232:0.333333 243:1 263:0.5 267:1 270:0.666667 283:1 332:1 453:1 
-0.9589181483942973 5:0.333333 8:0.333333 18:0.25 19:0.166667 20:0.5 21:0.75 22:0.5 23:0.333333 24:0.666667 35:0.5 38:0.5 51:0.5 62:1 70:0.5 77:0.5 91:0.666667 92:0.5 102:1 121:0.5 126:0.5 130:1 146:0.75 147:1 163:1 175:0.666667 209:1 212:0.5 214:0.5 293:0.5 294:1 379:1 391:0.5 425:1 428:1 451:1 452:1 453:0.5 454:1 
-0.3932422127454938 5:0.333333 9:0.5 19:0.166667 23:0.333333 29:1 30:0.5 40:0.5 46:0.333333 47:0.25 48:0.5 49:0.4 51:0.5 71:1 72:0.666667 77:0.25 91:0.666667 92:0.5 94:0.5 119:0.5 121:0.5 122:0.5 143:1 160:0.25 231:1 243:1 255:1 282:0.666667 295:0.333333 299:1 309:1 438:1 462:1 
-2.203222886118705 5:0.666667 8:0.333333 38:0.25 44:0.5 58:0.666667 63:0.5 81:1 83:0.5 90:0.5 115:1 116:0.666667 127:0.25 137:0.5 154:1 160:0.25 193:0.5 195:0.5 201:0.5 205:0.666667 206:0.666667 236:1 242:1 293:0.5 297:1 350:1 351:0.5 
-0.6152148147002984 1:0.333333 2:0.5 3:0.5 19:0.666667 25:0.5 26:1 29:0.5 35:0.5 46:0.166667 47:0.5 48:0.5 49:0.4 58:0.666667 79:0.5 86:0.5 88:1 91:0.666667 92:0.5 94:0.5 145:0.666667 153:1 177:0.666667 179:1 191:0.25 195:0.5 215:1 231:0.5 233:1 244:1 250:0.5 259:0.5 261:1 300:1 302:1 391:0.5 442:1 
-3.010053782254243 1:0.166667 3:0.5 5:0.666667 19:0.333333 25:0.5 26:0.5 43:0.25 46:0.333333 47:0.5 48:0.5 49:0.4 75:0.666667 80:0.5 90:0.25 157:1 158:0.5 159:0.5 184:0.5 195:0.5 229:0.5 264:1 397:0.5 418:1 475:1 494:1 
-0.7623931172931967 19:0.333333 20:0.5 25:0.5 26:0.5 27:0.5 31:0.5 37:1 42:0.5 46:0.333333 47:0.5 48:0.5 49:0.4 55:0.8 80:0.5 85:0.5 87:0.5 91:0.666667 98:0.25 111:0.333333 121:1 127:0.5 152:1 192:0.666667 207:1 212:0.5 219:1 273:1 275:1 281:0.666667 306:0.5 320:1 321:1 395:0.5 398:1 407:0.5 412:1 
-0.4680539745496872 1:0.333333 3:0.5 5:0.666667 22:0.5 27:0.5 29:0.5 36:1 37:1 38:0.75 46:0.333333 55:0.4 66:0.5 67:0.5 69:0.666667 70:0.5 73:1 77:0.5 121:0.5 127:0.5 133:1 173:1 186:1 192:0.666667 206:0.333333 208:1 209:1 225:0.5 266:0.5 273:1 274:0.25 320:1 321:1 328:1 329:1 356:0.5 412:1 414:0.5 425:1 
-0.4894163176295994 7:0.5 18:0.5 19:0.333333 20:0.5 21:1 22:0.5 23:0.333333 24:0.666667 51:0.25 73:1 76:1 77:0.5 92:0.25 117:1 121:0.5 131:1 134:1 145:0.666667 146:0.5 148:0.666667 150:1 166:1 169:0.666667 181:1 195:0.5 196:0.666667 199:1 212:0.5 230:0.666667 237:1 251:1 254:1 255:1 283:1 293:0.5 425:1 
-0.9454972238561761 2:0.5 3:0.5 29:0.5 39:0.666667 41:0.5 44:0.25 51:0.25 53:1 54:0.5 63:0.5 70:0.5 80:0.5 82:0.666667 83:0.5 84:1 85:0.5 111:0.666667 139:1 140:1 149:1 155:0.5 169:0.666667 170:1 244:1 253:1 256:1 343:1 504:1 
-0.5137027530178224 19:0.666667 23:0.166667 35:0.25 46:0.333333 47:0.5 48:1 49:0.4 54:0.5 83:0.5 139:1 193:0.5 195:0.5 204:1 209:1 214:0.5 215:1 232:0.666667 240:0.5 243:1 247:1 254:1 267:1 274:0.5 308:1 332:1 333:1 334:1 363:1 368:1 
-1.042478512835834 8:0.333333 11:1 12:1 19:0.333333 30:0.25 32:1 33:1 35:0.5 40:0.5 41:0.5 46:0.333333 47:0.5 48:0.5 49:0.4 53:0.25 58:0.333333 63:0.5 71:0.5 72:0.666667 80:0.25 83:0.25 86:0.5 127:0.5 172:0.5 192:0.666667 194:1 212:0.5 229:0.5 263:0.5 267:1 273:1 308:1 320:1 321:1 383:1 
-0.8959874447517669 22:0.5 46:0.333333 55:0.4 69:0.666667 70:0.5 71:0.5 72:0.333333 83:0.5 84:1 91:0.666667 94:0.5 98:0.5 102:1 120:1 171:0.5 190:0.5 195:0.5 218:1 243:0.5 250:0.5 261:1 268:1 280:1 281:0.666667 291:1 301:0.666667 330:1 375:1 438:1 
-0.5715961052934037 5:0.666667 9:1 19:0.333333 23:0.333333 29:1 30:0.5 40:0.5 46:0.333333 47:0.5 48:0.5 49:0.4 51:0.5 71:1 72:0.666667 77:0.25 91:0.666667 92:0.5 94:0.25 119:0.25 121:0.5 122:0.5 143:1 231:1 243:1 255:1 282:0.666667 295:0.333333 299:1 309:1 438:1 462:1 
-0.7146312426212414 2:0.5 8:0.333333 19:0.333333 20:0.5 23:0.666667 39:0.666667 44:0.5 46:0.333333 47:0.5 48:0.5 49:0.4 50:0.666667 51:0.5 52:1 53:0.5 54:0.5 55:0.6 61:1 71:0.5 72:0.666667 85:0.5 94:0.5 95:0.333333 113:0.5 116:0.333333 131:1 139:1 145:0.666667 176:0.5 206:0.666667 212:0.5 223:1 232:0.666667 244:1 269:1 279:1 299:1 328:1 
-0.467378469417752 20:0.5 40:0.25 46:0.166667 60:0.5 70:0.5 77:0.5 79:0.5 81:1 92:0.5 101:1 106:1 111:0.666667 121:0.5 130:0.5 140:0.5 148:0.333333 154:0.5 165:0.5 190:0.5 193:0.5 201:1 202:1 210:0.5 225:0.25 236:1 242:1 250:0.5 251:1 252:1 255:1 258:1 261:1 274:0.5 283:1 297:1 350:1 351:0.5 354:0.5 387:1 456:0.5 
-0.7966500255350902 1:0.333333 2:0.5 18:0.5 19:0.333333 20:0.5 21:0.5 22:0.5 23:0.333333 24:0.666667 25:0.5 27:0.5 43:0.5 49:0.4 51:0.5 53:0.5 61:1 73:1 79:0.5 91:0.666667 101:0.25 107:1 126:0.5 159:1 171:0.5 176:0.5 177:0.666667 212:0.25 213:1 280:1 299:0.5 308:1 369:1 387:0.333333 490:1 507:1 
-0.8795178784036817 5:0.666667 8:0.333333 19:0.5 23:0.166667 24:0.666667 28:0.5 29:0.5 30:1 38:0.25 46:0.5 47:0.5 48:1 49:0.4 71:0.5 77:0.5 85:1 105:0.5 111:0.666667 121:0.5 134:1 137:1 158:0.25 202:0.5 214:0.5 215:0.5 225:0.5 253:1 270:0.666667 275:1 283:1 344:0.5 401:1 448:0.5 508:1 
-0.01946009165839583 1:0.333333 19:0.333333 28:0.5 33:0.5 38:0.25 43:0.5 44:0.5 46:0.166667 47:0.5 48:0.5 49:0.4 73:1 76:0.5 80:0.5 87:0.5 88:1 97:1 106:1 135:0.666667 136:1 165:1 179:0.5 186:1 187:1 193:0.5 201:0.5 204:1 220:1 232:0.666667 242:1 251:1 282:0.333333 294:1 340:1 
-0.2098604590615999 5:0.666667 18:0.5 19:0.333333 20:0.5 21:0.5 22:0.5 23:0.666667 24:0.666667 27:0.5 33:0.5 44:0.5 46:0.333333 50:0.666667 51:0.5 54:0.5 70:0.5 71:0.25 72:0.333333 77:0.5 79:0.5 80:0.25 90:0.5 95:0.666667 101:0.25 109:1 111:0.666667 122:0.5 142:1 161:1 168:0.5 184:1 190:0.5 210:1 225:0.5 278:1 293:0.5 308:1 328:1 329:1 434:1 
-0.6206150699457715 3:0.5 5:0.666667 7:1 19:0.333333 20:0.5 24:0.666667 28:0.25 31:0.5 46:0.333333 47:0.5 48:0.5 49:0.4 51:1 56:0.5 83:0.5 105:0.5 111:0.333333 126:0.5 129:1 145:0.666667 149:1 184:1 185:0.25 188:0.5 195:1 209:1 256:0.5 320:1 328:1 329:1 331:1 332:1 376:1 379:1 
-0.6147174869074744 8:0.166667 22:0.25 23:0.666667 40:0.5 55:0.4 69:0.666667 70:0.75 76:0.75 77:0.5 79:0.5 85:0.25 87:0.5 107:1 118:0.666667 133:1 193:0.5 212:0.5 240:0.5 242:1 244:1 252:1 258:0.666667 261:0.5 263:0.5 272:1 297:1 299:1 302:1 306:0.5 330:1 370:1 413:1 463:0.5 
-0.3238390312885419 1:0.333333 2:0.5 8:0.333333 9:1 23:0.333333 32:1 34:0.5 51:0.25 66:1 73:1 81:1 94:0.5 106:1 107:1 116:0.666667 121:0.5 140:0.5 154:0.5 155:1 172:0.5 201:0.5 236:1 283:1 306:0.25 350:1 351:0.5 352:1 383:1 396:1 397:1 399:1 513:1 
-25.51048032965011 2:0.5 12:1 22:0.5 23:0.333333 24:0.666667 25:0.5 26:0.5 38:0.5 46:0.333333 48:0.5 55:0.4 56:0.5 62:1 69:0.666667 70:0.5 77:0.5 80:0.5 105:0.5 124:0.5 126:1 137:1 140:0.25 147:1 155:1 160:0.5 175:0.666667 184:1 195:0.5 212:0.75 230:0.333333 239:0.5 282:0.666667 294:0.5 300:1 309:1 341:1 383:1 412:1 466:1 
-0.7112793071707586 7:0.5 19:0.333333 20:0.5 42:0.5 44:0.5 46:0.333333 47:0.5 48:0.5 49:0.4 54:0.25 71:1 72:0.333333 75:0.666667 77:0.5 79:0.25 92:1 93:0.666667 114:1 145:0.666667 146:0.5 148:0.666667 166:0.5 188:0.5 190:0.5 196:0.666667 201:0.5 253:1 263:0.5 269:1 295:1 299:1 464:0.5 514:1 
-0.5776204656993456 1:0.333333 2:0.5 19:0.666667 23:0.333333 25:0.5 26:0.25 28:0.5 46:0.333333 47:0.5 48:0.75 49:0.4 58:0.666667 76:0.5 116:0.666667 121:0.5 126:0.5 155:1 177:0.666667 185:0.5 197:1 212:0.5 215:1 230:0.666667 243:1 251:1 253:1 258:0.666667 299:1 302:1 343:1 473:1 515:1 
-0.6592533176445063 8:0.5 9:0.5 12:1 19:0.333333 35:0.5 38:0.5 46:0.333333 47:0.5 48:0.5 49:0.4 63:0.5 70:0.5 73:1 79:0.25 137:1 163:1 171:1 183:1 191:0.5 195:0.5 199:1 200:1 212:0.5 229:0.5 255:1 264:1 302:1 355:1 425:1 
-0.2680424682479296 7:0.5 19:0.333333 28:0.5 29:0.25 35:0.75 40:0.5 42:0.5 46:0.333333 47:0.5 48:0.5 49:0.4 58:0.666667 60:1 71:0.5 72:0.666667 101:0.5 126:0.5 143:1 154:0.5 166:0.5 206:0.666667 207:1 212:0.25 214:0.5 223:1 230:0.666667 232:0.666667 275:1 277:1 280:1 282:0.666667 290:0.5 300:1 301:0.666667 302:1 303:0.5 318:1 331:1 354:1 389:1 390:1 507:1 
-0.2651692619895156 12:1 18:0.5 19:0.333333 20:0.5 21:0.5 22:0.5 23:0.333333 24:0.666667 25:0.5 26:0.5 32:1 33:0.5 42:0.25 63:0.5 75:0.666667 76:0.5 77:0.5 101:1 102:0.5 116:0.666667 117:1 119:0.5 125:0.5 127:0.5 131:1 134:0.5 143:0.5 150:1 168:0.5 169:0.666667 173:1 183:0.5 195:1 199:1 244:1 255:0.5 256:1 283:0.5 293:0.5 318:0.5 344:1 345:1 370:0.5 380:0.333333 387:0.666667 420:1 516:1 517:1 
-0.4748576825480251 5:0.666667 8:0.333333 9:1 14:0.5 18:0.5 19:0.333333 20:0.5 21:1 22:0.5 23:0.333333 24:0.666667 33:0.5 40:0.25 44:0.5 55:0.2 60:0.5 71:0.5 72:0.666667 77:0.25 86:0.5 87:0.25 94:0.5 104:1 106:1 117:1 135:0.666667 147:1 148:0.666667 155:1 179:0.5 188:0.5 192:0.333333 224:1 225:0.75 258:0.333333 278:1 294:1 306:0.5 373:0.5 418:1 
-0.1091199158084383 7:0.5 19:0.333333 20:0.5 22:0.5 23:0.333333 25:0.5 26:0.75 39:0.666667 40:0.5 51:0.5 52:1 55:0.4 63:0.5 66:1 69:0.666667 70:0.5 80:0.5 109:0.5 112:1 113:0.5 114:1 137:1 172:0.5 175:0.666667 232:0.666667 253:1 254:1 269:1 290:0.25 306:0.5 309:1 319:1 328:1 340:1 342:1 343:1 
-0.2791312337842697 1:0.333333 2:0.5 8:0.333333 9:1 23:0.166667 32:0.5 34:0.25 51:0.5 66:0.5 73:1 81:1 94:0.5 106:1 107:1 116:0.666667 121:0.5 140:0.5 154:0.5 155:1 172:0.5 201:0.5 236:1 283:1 294:0.5 306:0.5 350:1 351:0.5 352:1 383:0.5 396:0.5 397:0.5 399:1 513:1 518:1 519:1 520:1 
-0.5135937036949473 5:0.333333 14:1 44:0.75 49:0.4 71:0.5 72:0.666667 83:0.5 91:0.666667 97:1 105:0.5 111:0.666667 119:1 121:0.5 123:1 145:0.333333 155:0.5 164:1 171:0.5 181:0.5 195:0.5 223:1 230:0.666667 231:1 233:1 260:1 289:1 306:0.5 307:1 309:1 342:1 348:0.5 373:1 383:1 393:0.5 441:0.5 
-0.1035604981443306 3:0.5 5:0.666667 7:0.75 19:0.333333 20:0.25 24:0.666667 28:0.5 31:0.5 46:0.166667 47:0.5 48:0.5 49:0.6 51:1 56:0.25 83:0.5 105:0.5 126:0.5 129:1 145:0.666667 149:1 184:1 185:0.5 188:0.5 195:0.75 209:1 256:1 320:0.5 328:1 329:1 331:1 332:1 376:1 379:1 511:1 512:1 
-0.8208495928001601 7:0.5 8:0.333333 34:0.5 40:1 44:0.5 55:0.4 71:0.5 72:0.666667 82:0.666667 97:1 98:0.5 111:0.666667 117:1 118:0.666667 139:1 145:0.666667 149:1 158:0.5 159:1 183:0.5 184:1 192:0.666667 212:0.25 230:0.666667 254:1 258:0.666667 264:1 267:1 273:1 295:0.5 306:0.5 329:1 332:1 516:1 
-0.5335510642673122 2:0.25 7:0.5 12:0.5 19:0.166667 22:0.25 23:0.333333 24:0.333333 25:0.5 26:0.5 38:0.25 42:0.25 46:0.5 47:0.25 48:0.75 49:0.2 55:0.2 56:0.5 62:0.5 69:0.333333 70:0.25 71:0.25 77:0.25 80:0.5 105:0.5 119:0.25 124:0.5 126:1 137:1 140:0.5 147:0.5 155:0.5 160:0.5 175:0.666667 184:1 195:0.75 197:0.5 212:0.5 230:0.666667 239:0.25 262:0.5 282:0.666667 300:1 309:1 341:0.5 380:0.333333 383:0.5 412:1 420:0.5 466:0.5 469:1 471:1 521:1 
-0.2395152510717304 5:0.666667 38:0.5 40:0.5 41:1 50:0.666667 54:0.25 58:0.666667 66:1 73:1 77:1 81:1 90:0.5 95:0.666667 107:1 126:0.5 132:0.666667 137:1 140:0.25 154:0.5 158:1 174:1 201:0.5 204:0.5 209:1 220:0.5 225:0.5 236:1 249:1 274:0.5 293:0.5 309:1 341:1 350:1 351:0.5 370:1 522:1 
-0.7958878983924922 1:0.333333 5:0.666667 8:0.333333 9:1 18:0.5 19:0.333333 20:0.5 21:0.5 22:0.5 23:0.333333 24:0.666667 30:0.5 31:0.5 35:0.5 40:0.5 62:0.5 71:0.5 72:0.666667 77:0.5 86:0.5 134:1 171:0.5 180:1 194:1 214:0.5 223:0.5 227:1 230:0.666667 232:0.666667 303:0.5 423:0.5 424:1 523:1 
-0.4203013565217134 6:1 19:0.333333 35:0.5 40:0.5 42:0.5 46:0.333333 47:1 48:0.5 49:0.4 52:1 71:0.25 72:0.333333 80:0.5 87:0.5 91:0.666667 92:0.5 113:0.5 117:1 121:0.5 132:0.666667 136:1 147:1 166:0.5 181:1 216:0.5 237:0.5 240:0.5 243:1 270:0.666667 277:1 282:0.666667 307:1 318:1 329:1 335:0.5 352:1 357:1 359:1 402:0.5 434:1 
-0.8757228078426197 1:0.333333 3:0.5 19:0.333333 28:0.5 32:1 36:1 38:0.5 39:0.666667 43:0.5 44:0.5 46:0.166667 47:0.5 48:0.5 49:0.4 66:1 67:0.5 78:1 87:0.5 91:0.333333 118:0.666667 125:0.5 126:1 131:1 147:1 168:0.5 185:0.5 195:1 232:0.666667 249:0.5 274:1 306:0.5 308:1 340:1 
-1.201276153143749 2:0.5 3:0.5 8:0.333333 19:0.333333 21:0.5 25:0.5 26:0.5 27:0.5 44:0.5 46:0.166667 47:0.5 48:0.5 49:0.4 50:0.333333 54:0.5 91:0.666667 98:0.5 101:0.25 102:0.5 124:1 154:0.25 188:1 206:0.666667 214:0.5 224:1 245:0.666667 273:0.5 279:1 334:1 379:1 486:1 
-0.6607823803933749 1:0.333333 5:0.666667 23:0.333333 25:0.5 26:0.5 38:1 39:0.666667 66:1 70:0.5 71:0.25 81:1 85:0.25 104:1 112:0.5 124:0.5 138:1 154:1 165:1 171:0.5 190:0.5 191:0.5 195:0.5 200:1 201:0.5 223:1 236:1 261:1 283:1 293:0.5 295:1 296:0.5 350:1 351:0.5 354:1 
-0.7864016319003316 1:0.5 5:0.666667 19:0.333333 23:0.333333 28:0.25 40:0.5 46:0.333333 47:0.5 48:0.5 49:0.4 56:0.5 71:0.5 72:0.666667 86:0.5 98:0.5 104:0.5 108:0.666667 137:0.5 138:1 158:0.25 161:1 167:1 171:0.5 185:1 186:0.5 208:0.5 214:0.5 227:0.5 232:0.666667 247:1 256:0.5 259:1 283:1 323:1 376:1 390:1 
-0.5109264127499041 3:0.5 19:0.333333 20:0.25 25:0.5 26:0.5 32:1 36:1 39:0.666667 46:0.333333 47:0.5 48:0.5 49:0.4 56:0.5 75:0.666667 80:0.25 119:0.25 132:0.666667 136:1 137:1 158:0.5 171:0.5 172:0.5 203:0.5 206:0.666667 213:0.5 220:0.5 232:0.666667 244:1 252:1 253:1 258:0.333333 299:0.5 319:0.5 342:1 360:0.5 380:0.666667 393:0.5 394:1 425:1 524:1 525:0.5 526:1 
-1.963036556205082 22:0.5 23:0.333333 25:0.5 26:0.5 29:0.5 55:0.4 68:1 69:0.666667 70:0.5 71:0.5 84:1 85:0.5 101:0.5 105:0.5 111:0.666667 113:0.5 116:0.666667 119:0.5 123:1 126:0.5 135:0.666667 189:1 218:0.5 279:1 294:1 319:1 344:0.5 370:1 
-1.241699945137323 19:0.5 22:0.25 23:0.333333 40:0.5 41:0.5 44:0.5 48:0.5 51:0.5 54:0.5 55:0.4 71:0.5 81:1 85:0.5 87:0.5 104:1 151:0.5 154:0.5 171:0.5 172:0.5 195:0.5 201:0.5 202:0.5 229:0.25 231:1 236:1 256:1 263:0.5 295:0.333333 308:1 330:1 350:1 351:0.5 354:0.5 397:0.5 
-0.5544397353875165 7:0.5 19:0.333333 20:0.5 42:0.5 44:0.5 46:0.333333 47:0.5 48:0.5 49:0.4 54:0.5 71:1 72:0.666667 75:0.666667 77:0.5 79:0.5 92:1 93:0.666667 114:1 145:0.666667 146:0.5 148:0.666667 166:0.5 188:0.5 190:0.5 196:0.666667 201:0.5 253:1 263:0.5 269:0.5 295:0.833333 299:1 514:1 527:1 
-1.020911865120775 1:0.333333 18:1 19:0.333333 20:0.5 21:1 22:0.5 23:0.333333 24:0.666667 28:0.25 38:0.25 42:0.5 44:0.5 51:0.5 54:0.5 55:0.2 66:0.5 90:0.5 91:0.666667 111:0.666667 137:1 167:1 200:0.5 212:0.25 216:1 217:1 232:0.666667 245:0.666667 250:1 254:1 263:0.5 343:1 412:1 
-0.4390374527399596 5:0.666667 13:1 15:1 19:0.333333 24:0.666667 28:1 46:0.333333 47:0.5 48:0.5 49:0.4 51:0.5 71:0.5 72:0.666667 86:0.5 95:0.666667 101:0.25 102:1 116:0.666667 145:0.666667 147:1 148:0.666667 155:1 195:1 212:1 226:1 295:0.166667 299:0.5 303:0.5 308:1 328:1 387:0.333333 418:1 428:1 
-0.6035879040178725 3:0.5 4:1 14:1 18:0.5 19:0.333333 20:0.5 21:0.5 22:0.5 23:0.333333 24:0.666667 27:1 31:0.5 36:1 44:0.5 53:0.5 58:0.333333 80:0.5 89:1 93:0.666667 105:0.5 121:0.5 146:0.5 151:1 176:0.5 212:0.5 221:1 258:0.666667 274:0.5 275:1 286:0.5 295:0.5 353:0.5 359:1 479:1 
-0.6533383418844729 11:1 19:0.333333 24:0.666667 34:1 44:0.75 45:1 46:0.666667 47:0.5 48:0.5 49:0.4 71:1 72:0.666667 77:0.5 80:0.5 87:0.5 91:1 95:0.666667 104:1 116:0.666667 121:0.5 132:0.666667 139:1 149:1 155:1 192:0.666667 195:0.5 218:1 256:1 277:1 282:0.666667 306:0.5 320:1 329:1 
-0.3977251457805716 2:0.5 7:0.5 8:0.333333 19:0.333333 40:1 46:0.333333 47:0.5 48:0.5 49:0.4 51:0.5 61:1 62:1 63:1 70:0.5 71:0.5 72:0.666667 86:1 87:0.25 92:0.5 105:0.5 137:0.5 150:1 153:1 175:1 178:1 195:0.5 212:0.5 222:1 253:1 327:1 366:1 379:1 402:1 529:1 
-0.4295057312434803 23:1 28:0.5 30:1 32:1 35:0.5 55:0.4 66:1 77:0.5 78:1 80:0.25 88:1 107:1 109:1 112:1 130:1 131:0.5 132:0.666667 135:0.333333 147:1 184:1 195:0.5 209:1 246:0.5 274:0.5 294:1 299:1 312:1 313:1 333:0.5 353:0.5 360:0.5 393:1 502:1 
-0.8223137835409552 19:0.333333 22:0.5 23:0.333333 24:0.666667 25:0.25 30:0.5 38:0.5 44:0.5 45:1 46:0.333333 47:0.5 48:0.5 49:0.8 54:0.5 56:0.5 71:0.5 72:0.666667 75:0.666667 80:0.5 91:0.666667 105:0.5 111:0.666667 121:0.5 158:0.5 160:0.5 166:0.5 171:0.5 181:1 212:0.25 225:0.5 250:0.5 255:1 258:0.666667 263:0.5 293:0.5 299:1 351:0.25 370:1 380:0.666667 394:1 
-0.5928340760080494 3:0.5 8:0.333333 19:0.333333 23:0.333333 39:0.666667 42:1 46:0.333333 47:0.5 48:0.5 49:0.4 58:0.666667 63:0.5 71:0.5 72:0.666667 77:0.5 79:0.5 80:0.5 84:1 90:0.25 92:0.5 108:0.666667 137:1 152:1 171:0.25 177:0.666667 178:1 184:1 187:0.5 188:0.5 195:0.5 199:1 215:1 252:0.5 263:0.25 267:0.5 275:0.5 276:0.5 277:1 279:1 325:1 533:1 
-0.5677910193964191 12:0.5 22:0.5 24:0.333333 55:0.4 61:1 63:0.5 69:0.666667 70:0.5 71:0.5 72:0.666667 80:0.25 91:0.666667 92:0.5 101:0.5 106:1 116:0.666667 120:1 121:0.5 125:0.5 154:0.5 160:0.5 177:0.666667 186:1 188:0.5 195:0.5 205:0.333333 206:0.666667 215:1 255:1 263:0.5 283:1 295:0.333333 299:0.5 344:0.5 345:0.5 366:0.5 444:1 
-126.9133579644654 2:0.5 12:1 22:0.5 23:0.333333 24:0.666667 25:0.5 26:0.5 38:0.5 46:0.333333 48:0.5 55:0.4 56:0.5 62:1 69:0.666667 70:0.5 77:0.5 80:0.5 105:0.5 124:0.5 126:1 137:1 140:0.25 147:1 155:1 160:0.5 175:0.666667 184:1 195:0.5 212:0.75 230:0.333333 239:0.5 282:0.666667 294:0.5 300:1 309:1 341:1 383:1 412:1 466:1 
-1.067477336133767 5:0.666667 12:1 19:1 23:0.333333 35:0.5 40:1 41:0.5 46:0.333333 47:0.5 48:0.5 49:0.4 55:0.4 71:0.5 77:0.5 79:0.25 80:0.5 82:0.666667 95:0.333333 130:1 176:0.5 191:0.5 193:0.5 195:0.5 224:1 230:0.666667 242:1 262:1 294:1 302:1 328:1 
-0.3401855378139818 5:0.666667 12:1 19:0.333333 23:0.666667 25:0.5 26:0.25 32:1 46:1 47:0.5 48:0.5 49:0.4 53:0.5 62:1 71:0.5 77:0.5 84:1 90:0.5 126:0.5 131:1 132:0.666667 138:1 146:0.5 160:1 171:0.25 195:0.5 198:1 203:1 232:0.666667 276:1 295:0.333333 308:1 319:1 330:1 363:1 376:1 
-1.078193368331097 3:0.5 7:0.5 19:0.5 35:0.5 38:0.5 40:0.5 46:0.333333 47:0.5 48:0.5 49:0.4 51:0.5 54:0.25 71:1 72:0.666667 86:0.5 94:0.5 102:0.5 103:1 122:0.5 124:0.5 149:1 169:0.666667 172:0.5 179:1 203:0.5 221:1 226:1 229:0.25 248:1 295:1 313:1 338:1 379:1 
-0.5809633661974586 1:0.333333 2:0.5 3:0.5 8:0.333333 19:0.333333 28:0.5 40:0.5 46:0.333333 47:0.5 48:0.5 49:0.4 55:0.4 62:1 73:1 77:0.25 91:0.666667 119:0.5 171:0.5 193:0.5 199:1 208:1 227:1 230:0.333333 242:1 243:1 255:1 256:1 308:1 319:1 393:1 416:1 423:1 424:0.5 503:1 
-1.081449960881349 22:0.5 23:0.333333 25:0.5 26:0.5 29:0.5 55:0.4 68:1 69:0.666667 70:0.5 71:0.5 84:1 85:0.5 101:0.5 105:0.5 111:0.666667 113:0.5 116:0.666667 119:0.5 123:1 126:0.5 135:0.333333 189:1 218:0.5 250:0.25 279:0.5 294:1 319:1 344:1 370:1 484:1 
-0.7619058177201705 1:0.333333 22:0.5 38:0.5 39:0.333333 46:0.166667 55:0.4 69:0.666667 70:0.5 71:0.5 72:0.666667 75:0.333333 77:0.5 83:0.5 90:0.5 91:0.666667 99:0.5 111:0.666667 121:0.5 130:0.5 133:1 139:1 142:1 143:1 144:1 154:0.25 171:0.5 172:0.5 182:1 200:1 202:0.5 204:0.5 212:0.5 223:1 225:0.25 230:0.666667 251:1 262:0.5 354:0.5 387:0.333333 448:0.5 508:1 
-0.1222412978934518 1:0.333333 2:0.5 3:0.5 19:0.666667 25:0.5 26:1 29:0.5 35:0.5 46:0.333333 47:0.5 48:0.5 49:0.4 58:0.666667 79:0.5 86:0.5 88:1 91:0.666667 92:0.25 94:1 145:0.666667 153:1 177:0.666667 179:1 191:0.5 195:0.5 215:0.5 233:1 244:1 250:0.5 261:1 300:0.5 302:1 391:1 442:1 509:1 510:1 
-0.6453841995177195 2:0.5 8:0.333333 22:0.5 50:0.666667 55:0.4 60:1 69:0.666667 70:0.5 75:0.666667 78:1 104:0.5 121:0.25 138:0.5 147:1 148:0.666667 149:1 152:1 155:1 158:0.5 166:0.5 195:0.5 208:0.5 231:1 243:0.5 245:0.333333 251:0.5 254:1 255:0.5 268:0.5 297:1 302:1 325:0.5 343:1 379:1 380:0.666667 525:1 
-0.6192102813236005 8:0.333333 12:1 19:0.333333 41:0.5 42:0.5 43:0.5 45:1 46:0.333333 47:0.5 48:0.5 49:0.4 50:0.666667 55:0.4 73:1 77:0.5 88:1 89:1 90:0.5 106:0.5 107:1 108:0.666667 119:0.5 123:1 127:0.5 155:1 160:0.5 165:0.5 177:0.666667 188:0.25 195:0.5 200:0.5 201:0.5 239:0.5 254:1 285:0.333333 301:0.666667 307:0.5 325:1 407:0.5 444:1 463:1 
-1.315971601328034 1:0.333333 2:0.5 3:0.5 19:0.166667 22:0.5 35:0.5 40:0.5 55:0.8 69:0.666667 70:0.5 71:0.5 77:0.5 82:0.666667 97:0.5 98:0.25 107:1 132:0.666667 133:1 135:0.666667 147:1 193:0.5 195:0.5 242:1 275:0.5 279:1 280:0.5 283:1 294:0.5 306:0.5 370:1 
-0.5359271057965911 2:0.5 23:0.333333 40:0.5 46:0.333333 50:0.666667 55:0.4 71:0.5 72:0.333333 73:1 77:0.5 81:1 82:0.666667 88:1 89:1 91:0.666667 97:1 98:1 108:0.666667 121:0.5 149:1 154:0.5 158:0.5 172:0.25 195:0.5 201:0.5 214:0.5 223:1 236:1 248:1 269:1 279:1 293:0.5 306:0.5 350:1 351:0.5 425:1 437:1 438:1 
-1.239512319827538 5:0.666667 15:1 19:0.333333 20:0.25 23:0.333333 27:0.5 40:0.5 46:0.5 47:0.5 48:0.5 49:1 63:0.5 71:0.5 95:0.333333 108:0.666667 116:0.666667 121:0.5 124:0.5 125:0.5 145:0.666667 157:1 158:0.5 174:1 195:0.5 232:0.666667 251:1 267:1 274:0.5 276:1 280:1 313:1 
-1.041972433389473 3:0.25 12:1 19:0.166667 20:0.25 22:0.5 23:0.333333 36:0.5 37:1 40:0.75 55:0.8 63:0.5 69:0.666667 70:0.5 71:0.5 72:0.666667 85:0.5 86:0.5 101:0.5 135:0.666667 137:1 155:1 174:1 176:0.5 183:0.5 188:0.5 195:0.5 198:0.5 263:0.5 281:0.666667 282:0.333333 295:0.333333 309:1 357:0.5 363:1 388:0.5 
-0.5059362454117331 8:0.666667 19:0.333333 25:0.5 26:0.5 32:1 38:0.5 46:0.5 47:0.5 48:0.5 49:0.4 54:0.5 79:0.25 115:1 126:0.5 127:0.5 138:1 149:0.5 193:0.5 195:0.5 232:1 240:1 244:1 252:1 279:1 283:1 297:1 302:1 303:0.5 332:1 333:1 334:1 368:1 514:0.5 
-0.4899173881421795 3:0.5 19:0.333333 20:0.25 23:1 38:0.5 39:0.666667 40:0.5 46:0.666667 47:0.5 48:0.5 49:0.8 51:0.5 53:0.5 71:0.5 80:0.25 85:0.5 89:1 91:0.666667 92:0.5 113:0.25 127:0.5 135:0.666667 160:1 190:0.5 230:0.666667 253:1 255:1 282:1 296:1 297:1 306:0.5 398:1 412:1 480:0.5 481:0.5 
-0.05127992991587441 1:0.333333 2:0.5 3:0.5 22:0.5 35:0.5 40:0.25 55:0.8 69:0.666667 70:0.5 71:0.5 77:0.5 82:0.666667 97:0.5 98:0.5 107:1 132:0.666667 133:1 135:0.666667 147:1 193:0.5 195:0.5 242:1 275:1 279:1 280:1 283:1 306:0.25 370:1 407:0.5 
-0.8879609677961514 19:0.666667 20:0.5 22:0.5 23:0.666667 28:0.5 35:0.5 37:1 52:1 55:0.4 68:1 69:0.666667 70:0.5 71:0.5 72:0.666667 91:0.666667 92:0.5 101:0.5 102:1 104:0.5 147:1 155:1 184:1 191:0.5 209:1 230:0.333333 251:1 256:0.5 264:1 280:1 290:0.5 333:1 353:1 366:0.5 
-0.9673899776629208 3:0.5 19:0.333333 35:0.25 41:0.5 42:0.5 46:0.333333 47:0.5 48:0.5 49:0.4 51:0.5 66:1 67:1 71:0.5 72:0.666667 77:0.5 86:0.5 88:1 90:0.25 154:0.5 160:0.5 164:1 187:1 205:0.666667 206:0.666667 230:0.666667 231:1 275:1 306:0.5 328:1 350:1 425:1 
-0.7161189922674033 12:1 19:0.333333 27:0.5 35:0.5 41:0.5 42:0.25 46:0.333333 47:0.5 48:0.5 49:0.4 50:0.333333 58:0.666667 70:0.5 71:0.5 72:0.666667 76:0.5 77:0.5 113:0.5 122:1 132:0.333333 137:1 158:0.25 174:1 185:0.5 194:1 195:1 199:1 219:1 256:1 272:1 297:1 309:1 312:1 341:1 
-0.5221084317645608 5:0.666667 25:0.5 26:0.5 31:0.5 33:0.5 40:0.5 53:0.5 59:1 70:0.5 73:1 76:0.5 80:1 81:1 86:0.5 87:0.5 107:1 111:0.333333 118:0.666667 122:0.5 126:0.5 154:0.5 160:0.25 164:1 179:1 205:0.666667 206:0.666667 207:1 209:1 214:0.5 216:1 229:0.5 257:1 283:1 360:1 390:1 
-128 1:0.5 2:0.5 3:0.5 7:0.5 23:0.166667 38:0.25 50:0.333333 56:0.25 66:0.5 76:0.5 80:0.5 81:1 110:0.5 115:0.5 127:0.25 131:0.5 164:1 172:0.5 179:1 195:0.25 207:1 219:0.5 290:0.5 397:1 464:0.5 514:0.5 
-2.815071349470625 20:0.5 25:0.5 26:0.5 38:0.25 42:0.5 46:0.333333 79:0.5 131:0.5 149:0.5 228:1 299:1 321:0.5 337:0.5 378:1 380:0.666667 411:0.5 437:0.5 
-5.228303434139446 20:0.25 25:0.5 26:0.75 42:0.5 46:0.166667 79:0.5 131:0.5 141:0.5 158:0.25 164:0.5 228:1 299:0.5 321:0.5 337:0.5 378:1 380:0.666667 411:0.5 
-128 23:0.333333 33:1 42:1 43:0.5 50:0.666667 66:1 71:0.25 72:0.333333 86:0.5 94:0.25 95:0.666667 101:0.75 104:1 127:0.5 129:1 136:1 143:0.5 168:0.25 184:1 190:0.5 192:0.666667 193:0.5 196:0.666667 215:1 228:1 268:1 273:1 299:1 303:0.5 316:1 319:1 320:1 321:1 328:1 378:1 380:0.666667 536:1 537:1 538:1 
-15.51576279789112 1:0.333333 19:0.333333 28:0.5 35:0.25 38:0.25 45:1 46:0.666667 47:0.5 48:0.5 49:0.4 50:0.333333 54:0.25 80:0.5 81:1 93:0.666667 101:0.5 102:1 110:1 116:0.666667 121:0.5 126:0.5 154:0.25 155:1 159:1 160:0.25 174:1 195:0.5 200:0.5 236:1 250:0.5 262:0.5 274:0.5 302:1 303:1 309:1 354:0.5 398:1 464:1 
-1.492219143959277 3:0.5 18:0.25 19:0.166667 20:0.25 21:0.25 22:0.25 23:0.5 24:0.333333 25:0.5 35:0.5 38:0.5 44:0.5 46:0.166667 53:0.5 71:0.5 72:0.666667 75:0.333333 77:0.25 79:0.5 89:0.5 91:0.666667 93:0.333333 94:0.5 95:0.666667 101:0.5 121:0.75 127:0.5 165:0.5 172:0.5 176:0.5 186:1 192:0.666667 212:0.5 225:0.25 244:0.5 279:0.5 280:0.5 293:0.25 296:1 297:1 314:1 368:0.5 
-4.280899681010337 19:0.333333 20:0.25 32:1 46:0.333333 47:0.5 48:0.5 49:0.4 55:0.4 71:0.5 72:0.666667 77:0.25 91:0.666667 92:0.5 93:0.666667 96:0.5 97:1 98:0.25 121:0.5 125:0.5 132:0.333333 164:1 174:1 207:1 279:1 283:1 290:0.5 295:0.333333 306:0.5 318:1 337:1 368:0.5 464:1 540:1 541:1 542:1 543:1 
-1.408793138738142 3:0.5 5:0.666667 19:0.333333 23:0.333333 24:0.666667 28:0.5 43:0.25 46:0.333333 47:0.5 48:0.5 49:0.4 53:0.5 71:0.25 72:0.333333 83:0.5 89:1 101:0.25 102:0.5 119:0.25 130:0.5 145:0.666667 172:0.5 190:0.5 191:0.5 193:0.25 204:1 208:1 214:0.5 242:0.5 243:1 247:1 263:0.5 303:0.5 343:1 418:1 
-128 7:0.5 8:0.333333 9:1 22:0.25 24:0.333333 34:0.5 55:0.2 69:0.333333 70:0.25 71:0.5 72:0.666667 74:1 78:1 94:0.5 95:0.666667 101:0.5 111:0.666667 117:0.5 118:0.666667 172:0.5 188:0.5 195:0.75 216:0.5 247:1 253:1 256:1 274:0.25 328:1 358:0.5 376:1 390:1 425:1 469:1 
-1.185913600233007 3:0.5 14:1 19:0.333333 20:0.5 25:0.25 26:0.25 36:1 44:1 46:0.333333 47:0.5 48:1 49:0.4 50:0.666667 51:0.5 52:1 53:1 54:0.5 55:0.8 58:0.666667 91:0.666667 116:0.666667 230:0.666667 258:0.666667 286:1 384:1 446:1 
-18.77522717725179 18:0.5 19:0.333333 20:0.5 21:0.5 22:0.5 23:0.333333 24:0.666667 31:0.5 38:0.5 46:0.333333 71:0.5 72:0.666667 77:0.5 79:0.5 87:0.25 95:0.333333 123:0.5 137:0.5 158:0.5 212:0.5 215:1 220:1 245:0.333333 246:1 260:1 261:1 293:0.5 294:0.5 334:1 359:1 413:1 414:1 463:1 498:1 
-1.482224101862357 1:0.333333 12:1 22:0.5 38:0.5 44:1 54:0.5 55:0.4 69:0.666667 70:0.5 77:0.5 80:0.5 116:0.666667 127:0.5 132:0.666667 146:0.5 148:0.666667 154:0.5 156:1 160:0.5 199:1 213:1 214:0.5 250:0.5 274:0.5 282:0.666667 548:1 
-1.047539950649623 7:0.25 23:0.333333 27:0.5 87:0.5 94:0.5 106:1 126:0.5 135:0.666667 145:0.666667 146:0.5 147:0.5 148:0.666667 158:0.5 166:0.5 196:0.666667 215:1 246:1 269:1 275:1 280:1 309:1 343:1 359:1 360:1 
-2.035507449396144 3:0.5 18:0.5 19:0.333333 20:0.5 21:0.5 22:0.5 23:0.333333 24:0.666667 61:1 71:0.5 72:0.666667 77:0.5 79:0.25 132:0.666667 147:0.5 194:1 273:1 293:0.5 295:0.333333 337:1 395:0.5 418:1 
-8.681063501304232 3:0.5 5:0.666667 6:1 7:0.25 23:0.333333 30:0.5 34:0.5 63:0.25 78:1 80:0.5 82:0.666667 83:0.5 84:1 85:0.5 87:0.5 101:0.5 124:0.5 126:0.5 134:1 139:1 140:0.5 177:0.666667 195:0.5 262:1 274:0.5 277:1 290:0.5 299:1 307:1 322:1 347:0.5 366:1 399:1 451:1 
-0.5934701539639088 3:0.5 32:1 39:0.666667 44:0.5 53:0.5 54:0.5 64:1 136:1 154:0.5 160:0.25 169:0.666667 170:1 205:0.666667 206:0.666667 212:0.5 224:1 231:1 243:1 254:1 255:1 274:0.5 290:0.5 301:0.666667 328:1 331:1 338:1 389:1 
-128 8:0.333333 10:1 22:0.5 38:0.5 55:0.4 69:0.666667 70:0.5 71:0.5 72:0.666667 79:0.5 115:1 127:0.5 154:0.25 160:0.25 174:1 185:0.5 205:0.666667 206:0.666667 232:0.333333 297:1 351:0.5 364:1 417:1 
-43.39651076062062 7:0.5 19:0.333333 24:0.666667 52:1 53:0.5 96:1 101:0.5 102:1 127:0.5 144:1 154:0.5 158:0.5 159:1 160:0.25 176:0.5 183:0.5 184:1 188:0.5 195:0.5 320:1 353:1 354:1 359:1 441:0.5 479:0.5 
-11.15981741132152 7:0.5 19:0.333333 24:0.666667 52:1 53:0.5 96:1 101:0.5 102:1 127:0.5 144:1 154:0.5 158:0.5 159:1 160:0.5 176:0.5 183:0.5 184:1 188:0.25 195:0.5 320:1 353:1 354:1 359:1 479:1 
-128 5:0.666667 25:0.5 26:0.5 40:0.5 102:1 105:0.5 125:0.5 126:0.5 146:0.25 154:0.25 160:0.25 184:1 188:0.5 205:0.666667 206:0.333333 243:1 263:0.5 267:1 270:0.666667 283:1 332:1 453:1 
-128 40:0.5 50:0.666667 77:1 78:1 81:1 86:0.5 94:0.5 130:1 131:1 132:0.666667 134:1 135:1 175:0.666667 206:0.666667 209:1 214:0.5 232:0.666667 251:1 256:0.5 280:1 328:1 379:1 
-13.6695349882769 1:0.333333 2:0.5 14:0.5 25:0.5 31:0.5 43:0.5 71:0.5 72:0.666667 91:0.666667 101:0.25 105:1 106:1 121:0.5 123:1 126:0.5 132:0.666667 159:1 168:0.5 176:0.5 207:1 313:0.5 379:1 
-1.102979799321879 3:0.5 22:0.5 23:0.333333 25:0.5 26:0.5 34:0.5 38:0.5 40:0.5 41:0.25 53:1 55:0.4 69:0.666667 70:0.5 80:0.5 108:0.666667 126:0.5 127:0.5 138:1 196:0.666667 211:1 229:0.25 274:0.5 281:0.666667 294:1 296:1 297:1 299:1 308:1 329:1 370:1 
-0.9763908483273505 1:0.333333 2:1 22:0.5 29:0.25 36:1 37:1 39:0.666667 49:0.4 50:0.666667 55:0.4 69:0.666667 70:0.5 71:0.5 72:0.666667 77:0.5 101:0.5 114:1 133:1 140:0.25 195:0.5 218:1 225:0.5 226:1 293:0.5 340:1 407:1 
-0.4522528519013476 8:0.333333 10:1 22:0.5 38:0.5 55:0.4 69:0.666667 70:0.5 71:0.5 72:0.666667 79:0.5 115:1 127:0.5 154:0.5 160:0.25 174:1 185:0.5 205:0.666667 206:0.666667 297:1 351:0.5 364:1 417:1 
-0.3502191152421231 1:0.333333 2:0.5 12:1 22:0.5 40:0.5 44:0.5 47:0.5 50:0.666667 55:0.4 59:1 62:1 69:0.666667 70:0.5 71:0.5 72:0.666667 75:0.666667 86:0.5 87:0.5 101:1 104:1 121:0.5 158:0.5 194:1 195:0.5 198:0.5 267:1 268:1 283:0.5 284:1 285:1 302:0.5 325:1 335:1 542:1 555:1 556:1 557:1 
-0.05876031819384114 3:0.5 32:1 39:0.666667 44:0.5 53:0.5 54:0.5 64:0.5 136:1 154:0.5 160:0.5 169:0.666667 170:1 205:0.666667 206:0.666667 212:0.5 224:1 231:1 243:1 254:1 255:1 274:0.5 290:0.5 301:0.333333 328:1 331:1 338:1 389:1 558:1 
-128 10:1 17:1 18:0.5 19:0.333333 20:0.5 21:0.5 22:0.5 23:0.333333 24:0.666667 38:0.5 41:0.5 48:0.25 54:0.5 86:0.5 91:0.666667 98:0.5 108:0.666667 138:1 141:1 158:0.5 164:1 172:0.5 251:1 261:1 273:0.5 280:1 291:1 295:0.333333 296:1 306:0.5 307:1 308:1 
-0.3102366816847966 1:1 19:0.333333 20:1 46:0.333333 47:0.5 48:0.5 49:0.4 54:0.5 82:0.666667 101:0.5 121:0.5 128:1 136:1 186:1 191:0.25 213:1 232:0.666667 246:1 267:1 268:1 297:1 302:1 303:0.5 307:1 325:1 328:1 359:1 360:1 366:1 421:1 435:1 559:1 
-0.5888191469794036 20:0.5 22:0.5 55:0.8 69:0.666667 70:0.5 73:1 80:0.5 90:0.5 105:0.5 109:1 114:1 116:0.666667 120:1 138:1 146:0.25 171:0.5 177:0.666667 179:1 184:1 191:0.5 231:1 273:1 299:1 309:1 328:1 343:1 379:1 411:1 
-128 5:0.666667 25:0.5 26:0.5 40:0.5 102:1 105:0.5 125:0.5 126:0.5 154:0.25 160:0.25 184:1 188:0.5 205:0.666667 206:0.666667 232:0.333333 243:1 263:0.5 267:1 270:0.666667 283:1 332:1 453:1 
-0.00239141269762825 5:0.333333 18:0.5 19:0.5 23:0.333333 25:0.5 26:0.5 27:0.5 40:0.25 46:0.333333 47:0.5 48:0.5 49:0.4 66:0.5 77:0.5 79:0.5 91:0.666667 121:0.5 158:0.5 176:0.5 195:0.5 232:0.666667 244:1 257:1 267:1 275:1 276:1 293:0.5 330:1 332:1 341:1 359:1 370:1 383:0.5 396:0.5 397:0.5 479:1 560:1 
-0.2472578409734875 7:0.5 8:0.666667 19:0.333333 40:0.25 46:0.333333 47:0.5 48:0.5 49:0.4 54:0.5 55:0.2 63:0.25 71:0.5 72:0.666667 82:0.666667 91:0.666667 95:0.666667 97:0.5 98:0.5 117:1 118:0.666667 121:0.5 145:0.666667 173:1 174:1 175:0.666667 176:0.5 240:0.5 254:1 263:0.5 277:1 278:1 307:1 343:1 367:1 407:0.5 
